Layer [input] weights (0):
Layer [normalization_start_a] weights (2):
0.9981391 1.0199987 1.091768 1.0095404 1.0123727 1.0039675 1.0055053 1.0176779 1.0104394 1.0202692 1.0260327 0.9864596 0.988326 1.0125031 0.98590624 0.98859006 0.98448426 1.0038438 1.0245848 1.0207188 1.0172703 1.0181772 1.0125011 0.9866915 1.01528 1.0169367 0.99297273 1.0232528 1.0195152 0.98283917 1.0132858 1.0156803 0.9832212 0.98345095 0.98706895 1.0138714 0.9904375 1.0196692 0.9787205 1.0184908 1.0241233 1.0339011 0.98083574 1.0343081 0.98724365 0.98923045 1.0156174 0.9813231 1.0170904 0.98302466 1.0157669 0.9855295 0.9838662 0.9854058 1.0212945 0.993107 1.018934 1.0124128 0.9863582 1.0174743 1.0282706 1.0220047 0.99376756 1.0249403 1.0222045 0.9798211 1.0233037 1.0110296 1.0184945 0.9837221 1.0178261 1.0182612 0.98474663 1.0362052 0.9946124 1.0168949 1.0198079 1.0104916 0.99271363 0.99388343 0.9919809 0.9877684 1.0216559 0.98274386 0.9871206 0.97899425 1.0293823 0.98247945 1.0122201 0.9828309 0.98159164 1.0346215 0.9864752 1.0150478 1.0158498 0.9835136 1.020697 1.0142071 0.9873426 1.0178868 1.0335125 1.0226138 0.9881998 0.9869159 0.9860157 1.0117772 0.99849534 1.0281923 1.0176694 1.0342417 1.0139626 1.0166836 0.9937119 0.9913243 1.0305114 1.0114478 0.9818024 0.9854356 1.0293814 1.0210441 1.0146757 1.0151372 0.9844474 0.98154306 1.0088483 1.0241872 1.0152756 1.0178505 0.98287237 1.0328037 0.9877523 1.0282173 1.020745 0.9863016 1.0269471 1.0103228 0.98484504 0.9923477 0.99727035 0.9894779 1.0192851 1.0036043 0.989381 0.9933085 0.98915386 1.0277232 1.016756 0.9826715 1.0127318 1.0171998 1.0292937 1.0349722 0.9881005 1.026012 1.028282 0.9959388 0.98624784 1.0183424 1.0326786 1.0356287 1.0431285 1.0175099 0.9830131 1.010097 0.9901485 0.9809601 1.0142927 0.98996484 1.0205758 1.0199214 1.018918 0.9857062 1.0048496 1.0136573 1.0195124 0.98762745 0.97916317 1.0164888 1.0162283 1.0016831 0.96114373 1.0072004 1.0010431 0.98983514 1.0385997 1.0233433 0.96839184 1.0048263 0.9682018 0.98278135 0.96053696 1.0178393 1.0462224 1.0260375 1.0033745 1.0245528 1.0268371 1.0199058 0.98221594 1.0213158 0.99457115 1.0313008 0.98170155 1.0155973 0.9890168 1.016864 1.0178907 0.99752074 1.0237466 0.98491436 1.0031409 0.98038906 0.9986034 0.99407315 1.016567 0.9812059 1.0204945 0.98007 0.9815974 0.9797706 1.0209777 1.0198752 0.9816159 1.0114851 1.0359157 0.9879818 1.0228313 1.0142138 1.0199618 0.9985319 1.0213444 0.9821049 1.0185696 1.0331165 1.0228885 1.0182663 0.9904861 0.9931189 1.0229938 1.0381266 1.0153917 1.012121 0.9864813 0.9921779 1.0211011 1.0169011 0.988519 1.0159016 0.99923396 1.0198348 1.0201856 0.98135287 1.0324478 1.0172902 1.0329398 1.0212272 1.002593 0.9891374 0.98311836 0.98728544 1.0234715 0.989743 1.0138303 0.98856795 1.0180256 1.0151132 1.0268815 1.0166197 0.9891381 1.0341829 1.0143702 0.9896777 0.9871277 1.022774 1.0160537 0.9895861 0.99773216 1.0368053 0.9967833 0.98377526 0.9864454 0.9910116 0.9810333 1.0264033 0.9817196 0.9932004 0.99268657 1.0195134 1.0039195 1.0261621 0.9848212 1.0190161 0.9862879 1.0131975 1.0222249 1.0258565 1.0360144 1.0113465 0.9870599 0.9916799 0.9854575 1.0040414 1.0181477 1.0183518 1.0303962 0.97930145 0.9980747 0.9840857 1.0173471 1.0105644 1.0215307 1.0217268 0.9879875 1.0088732 1.0335857 1.0133679 0.9855264 1.0314959 0.9881558 1.0099996 1.023229 1.0213213 0.98598766 1.0169058 1.0306969 1.0386648 1.0175967 0.98843783 1.0198587 1.0198176 1.0123353 0.98313504 1.0223932 1.0225582 1.017885 1.0309292 1.0280902 1.0302135 0.99071527 1.0227733 0.9915289 0.98583907 1.0278344 0.98666096 1.0132589 1.0040361 1.0251247 1.022094 0.98079735 1.0219305 1.0436838 1.0237474 0.99053335 1.0114365 1.0404855 0.9848699 1.0485115 1.011531 1.045312 1.0109279 0.9705192 1.0537225 0.9772694 0.99798864 0.9921261 1.0193998 0.99559003 0.99083436 0.9795365 0.98926157 0.98602515 1.0440378 0.98419464 0.9934957 0.99639726 1.0071853 1.0142131 0.9859491 1.0289832 0.98411256 1.015916 0.9897952 1.0025126 0.9908893 1.0164186 1.0260892 1.0255316 0.98812914 1.0405384 1.027666 0.9801369 1.0018302 0.98250556 0.9889638 1.0162243 1.0128903 0.987112 0.9837297 1.0003029 0.98413485 1.0304304 1.0260029 0.98628306 0.98634636 0.9840836 1.0282854 0.98742336 1.0240632 0.9869337 0.9830313 1.0139058 1.0163605 1.0219905 1.0025164 1.0305178 1.018146 0.9865341 0.9931854 1.0252228 1.0051028 0.988415 1.0136443 1.000444 0.9894233 1.0140914 1.0360215 0.98898804 0.98471314 1.0271055 0.99913466 1.0183874 0.9925503 1.0331784 1.0185128 0.9894752 1.0117503 1.0235924 0.9866503 1.0174636 1.0205094 0.99562365 0.9853026 0.98222506 0.99137473 0.99199027 1.0118334 1.0291721 0.98899454 1.0165519 1.0099597 0.9847616 0.97966325 1.0009968 0.983015 1.0234361 1.0365351 0.99376506 0.99152726 0.98520154 0.9918861 0.98865503 0.9971258 0.9960093 1.0103878 0.9807265 1.013858 0.9899274 1.0139415 0.98842424 0.983269 0.98898244 1.0224249 0.9857454 1.0228971 1.0223231 0.9795863 0.9803722 1.0164127 1.0264355 1.0055126 1.0244973 0.9844637 0.9857974 0.9949062 0.99223757 0.9883625 0.9839442 1.0039066 1.0195217 1.0228088 0.9931303 0.98092633 0.9869978 0.9878522 0.9831409 1.016288 1.0163836 1.0184385 1.0144567 0.984501 1.0114708 0.9789924 0.9913513 1.0141847 1.0187902 0.979149 1.0223361 0.9858308 0.99907416 1.0191293 1.0199847 0.99879897 1.0217242 1.0223396 0.9859666 0.98335016 1.0180217 0.9855902 1.015206 1.025626 

0.008360396 -0.018083565 0.015196213 -0.016502237 0.014250511 0.011639377 -0.021571375 -0.03148714 -0.017061373 -0.0155672515 -0.021284722 0.008393021 -0.019171167 -0.036410037 -0.011685967 -0.019149676 -0.015122356 -0.015683401 0.018835926 0.017072486 0.022692181 0.013526391 -0.029865785 -0.0144472215 -0.018961105 0.016054459 0.004029182 0.023140725 -0.017683975 -0.017012518 -0.012806157 0.015562275 0.016288396 -0.016671922 0.012338101 0.013883245 0.008833496 0.019802153 0.021223651 0.018543266 -0.024454786 0.034103386 0.01941785 0.034541503 0.01208968 -0.0108775385 -0.014969397 -0.018653246 -0.018511891 -0.016977668 -0.015186048 -0.0144812185 0.015938304 -0.014803231 -0.020803634 -0.00676675 -0.018310482 0.012561696 0.013103398 0.017570978 -0.028188877 0.022007892 0.0054521146 0.024845377 -0.021670343 -0.020229641 -0.022734936 0.011245218 -0.018027553 -0.01645829 -0.017396837 0.018370092 0.01479392 0.036289833 0.004550758 0.0170171 -0.019327126 0.010240332 0.006464087 -0.0057516014 0.007170789 -0.01233207 -0.021213226 -0.017248213 0.0122725675 -0.020990947 -0.030451132 -0.017411988 -0.013174749 -0.01706593 0.018044611 0.034207765 0.012838077 0.015208943 -0.015526062 -0.016583333 -0.020227516 0.014447917 0.0120894695 0.018081084 -0.033706814 0.022366924 0.01107974 -0.013298823 0.013424775 0.011891323 0.002153471 0.028271645 -0.01706199 0.033709925 -0.0133354645 0.016864238 0.00541987 -0.00874386 -0.030749768 0.011546411 0.017771617 -0.014443843 -0.030396633 0.021177584 -0.014020148 0.015475442 0.015129431 -0.018496014 -0.008076762 0.024353834 -0.014572016 0.017891716 0.0174073 0.03280524 0.011652182 0.028204445 -0.020351615 -0.013832712 -0.026581647 0.010515634 0.014644811 -0.007835342 0.0021860267 -0.01052531 -0.018761743 0.0040437425 0.009891778 -0.006839523 0.010113664 0.027615651 -0.016234884 -0.017370366 -0.0136544695 0.017428389 -0.029390046 0.03488246 0.011244815 0.026054645 -0.028032536 -0.0038293377 0.01323256 0.018938385 -0.032583963 0.035664417 -0.04369388 0.017677214 0.016456032 0.010236599 0.009146514 -0.019140981 -0.013603626 -0.01020617 -0.02005809 0.019982591 -0.018470667 -0.014479693 -0.005740793 0.013904143 -0.019087147 -0.01247442 0.021328941 0.016616879 -0.015584018 0.0016073945 0.010106004 -0.020067941 0.0052616005 0.016097121 0.035898793 -0.023834517 -0.008788234 -0.015618269 -0.005808599 -0.011624429 -0.009747662 0.012980141 -0.017939419 0.026585344 -0.017522011 0.026038725 -0.029365133 0.019998362 0.015807588 0.02133646 0.008056189 0.031987652 0.018281732 0.01555839 0.011520211 0.01680602 -0.018564112 -0.002280024 -0.02408929 -0.015061419 -0.0045900433 -0.01952307 0.0011416094 -0.006068005 -0.016478261 -0.018872924 -0.020295395 -0.019907303 0.018174263 -0.020264471 -0.020664047 0.019994894 0.018226054 0.011598247 -0.03643001 -0.012127533 -0.022517443 0.014377949 -0.02085983 -0.0017612322 -0.020877201 -0.017847707 -0.018044617 0.033030882 -0.02257745 0.01833957 0.00886659 -0.0071067056 -0.022706803 0.037864313 -0.014690217 0.012285455 0.013046391 -0.007946073 -0.021708988 0.016996756 0.010846899 0.016052736 0.00029739022 0.019936869 -0.01982872 -0.018667515 -0.033053227 0.017527325 -0.03348378 0.021303754 -0.0018062597 -0.011128235 0.016341126 -0.012944806 -0.023073414 -0.010225816 -0.013208041 -0.011513805 -0.017546572 0.015261435 -0.026570514 0.016753854 0.010116307 0.034474522 -0.0138837695 -0.01016319 0.012204692 0.02296427 -0.015376111 -0.01052174 0.0029236744 0.036458194 0.0039319857 -0.016233852 0.013051592 -0.009074935 0.018729057 0.026785314 0.018060187 -0.00672491 0.0065189176 0.019662721 -0.0044835843 0.026156127 0.015557879 0.019287491 0.013098283 0.0134465955 -0.021996956 0.025817305 -0.03608145 0.011761314 0.012511193 -0.0085144825 0.013861605 0.004264564 -0.017504772 0.018522926 -0.03098086 -0.020597612 0.0010590149 -0.01597682 -0.016718864 0.010397353 -0.021094074 0.021759009 0.0114495875 0.008823241 -0.033649895 0.013503154 0.014755571 0.031429656 0.011090255 0.00974677 -0.022797624 0.021401217 0.0135557875 0.016193165 -0.030692646 0.03917704 -0.017273111 -0.011728476 -0.019301906 0.019814877 -0.011676232 -0.016583566 -0.022127653 0.022761673 -0.01735087 0.031074606 -0.027693566 0.030257318 0.008904362 0.022816211 0.0081945965 -0.014345159 -0.027796127 -0.0133376 -0.012510261 0.004204708 -0.025021192 0.022105196 0.018809592 0.021984437 0.015085819 -0.020851772 0.007915753 -0.019054942 -0.014988379 0.015618158 -0.011921382 0.01769718 0.027995124 -0.01667378 0.0048390375 0.034386944 0.015222699 -0.017229194 0.017338976 0.016397366 0.015322994 -0.013804655 0.017806312 -0.009302237 0.015744124 0.043535624 0.01718517 -0.0069902367 0.004216868 0.006302957 -0.013140073 -0.013936872 -0.026207963 -0.015702877 -0.014965788 -0.010286892 -0.0014643342 -0.009288932 -0.016356677 0.026219128 -0.025629558 -0.012003238 -0.040783133 0.02774642 0.019433614 0.002005222 0.017021673 -0.011136406 -0.01540896 0.0128347445 0.012388883 -0.016426094 0.00064653676 -0.01592532 -0.031043986 0.026124734 0.014040095 -0.013551852 0.015621175 0.028346632 0.011868271 0.024205003 0.01233853 -0.016715769 -0.01343471 0.016262067 -0.021386648 0.0028422547 -0.030612987 0.018375752 0.0129105095 -0.006983931 -0.026026536 0.0054395883 0.010853532 0.013754878 -0.0011425392 -0.0105875535 -0.0133308275 0.03595359 0.010280081 -0.015459355 -0.027169952 -0.001062883 -0.017740404 -0.007525277 -0.03344292 0.018762907 0.009944241 0.01188272 -0.023198187 -0.013504712 -0.016893728 0.020927776 0.003456907 -0.014875655 0.017409666 -0.0087733315 0.007214208 0.0119812675 -0.028809294 -0.01126819 -0.015902407 0.009758972 0.014663672 -0.02021998 -0.0018984621 -0.01695015 -0.023102101 0.036159057 0.0057738684 -0.008221878 0.014602699 -0.00826837 0.010828523 -0.0026632787 0.0032424422 0.010597434 0.019072339 0.014015783 0.009346954 0.014050191 0.01084296 -0.016451376 0.011212174 0.022389194 0.013727748 0.023039378 -0.0220479 -0.020387437 0.019586897 0.016551575 -0.026104342 0.0058131963 -0.02399902 -0.015612653 0.01460072 -0.0052996157 0.00705733 -0.011673839 0.015494147 0.0033739805 -0.019138914 0.022987504 0.006013202 -0.019007625 0.012407246 -0.0121341925 0.016388373 0.016413344 -0.015693031 0.01792804 -0.013774651 -0.015661674 -0.010899167 -0.020965494 0.007934611 0.014330971 -0.01832046 -0.020767592 -0.02173396 -0.014277262 0.000345404 0.019233007 -0.019397365 -0.0017446358 -0.021232402 0.022508042 0.013411388 -0.016680999 -0.017353764 -0.014556232 -0.014521815 0.025644148 

Layer [input_next_pos] weights (0):
Layer [concatenate_next_pos] weights (0):
Layer [feedforward_final] weights (2):
[-0.01317089 -0.00340229  0.02445967  0.04212554  0.01709285  0.00586416
  0.07076905  0.04973777 -0.00101042 -0.01980658 -0.04405109  0.07489165
  0.00478108 -0.02516351 -0.00821232 -0.04412935  0.07253498  0.00529614
 -0.0071574  -0.00860927 -0.04169735  0.02750579  0.04154156 -0.00283613
  0.01237582  0.0296166   0.05939246  0.07384124 -0.03007149  0.0760259
 -0.00712077  0.06858906  0.06197042 -0.03272302  0.06986163  0.05479242
  0.02278242  0.03447956  0.04559764 -0.00771565  0.0652353   0.03946578
 -0.00436727  0.02588473  0.04253321  0.00588241  0.02993739  0.05909101
 -0.02534822 -0.0405005   0.03462826 -0.02608594  0.08073407 -0.04247233
  0.05022302 -0.03769495  0.0396743  -0.02615819 -0.01728954  0.03279471
 -0.01884395  0.06729218 -0.01177102 -0.01945397  0.07948381  0.06977115
  0.0560401   0.0172905  -0.02160269  0.05417536  0.06560493  0.00213328
 -0.01192957 -0.04109576 -0.00602589  0.05993024  0.07994376 -0.02844564
  0.06637639 -0.03413693  0.0684767  -0.04404401 -0.03776908 -0.00777329
  0.02347881  0.01121828  0.0638611  -0.04461091  0.0572992   0.07112323
  0.05778353  0.01483105  0.00150835  0.05945521  0.0646481   0.08445714
  0.01286752 -0.04144156  0.01763973  0.03411489 -0.03709886  0.06305617
  0.06674979 -0.03826416  0.08072238  0.05045008 -0.04447003 -0.00244736
  0.01625245  0.02490197  0.05041866  0.09036121  0.00838756  0.0023777
 -0.02315991  0.05815374 -0.03901776  0.03448099  0.06523314  0.07477498
 -0.00347601  0.02135369  0.0741289  -0.04292358  0.06815462 -0.04136079
  0.03051959  0.08613842  0.04170279 -0.01145043 -0.02766481 -0.02555957
 -0.0158756   0.07116857 -0.02474555 -0.01661423  0.07249283  0.03935325
  0.03856302  0.0162325   0.04683199  0.04424375 -0.03347278  0.03529884
  0.08551389 -0.04030286 -0.00810471  0.00659562 -0.00317574 -0.02624445
  0.0100784   0.00358874  0.02430257 -0.03514948 -0.02965623 -0.03367866
  0.02878403  0.05249306 -0.02549916 -0.02388988 -0.02446343  0.02295
  0.02094184  0.02688445 -0.01410909  0.0570309   0.08758921 -0.01054137
  0.05231879  0.01435356  0.08969548  0.06072971  0.05179553  0.07593094
 -0.04185686  0.08625714  0.05582892 -0.00335488  0.03371639  0.07950593
  0.04152152  0.00316502  0.05532083  0.07872386  0.03323371  0.006112
  0.06764172  0.03881101  0.03924401 -0.01704462 -0.03231977  0.01458137
 -0.03505845  0.03807424 -0.01939878 -0.04038398  0.00503674  0.05288772
  0.01235132  0.00633851 -0.007963    0.04288397  0.05626555 -0.04376422
 -0.01958913 -0.02114317  0.07040187 -0.03210943  0.08318432 -0.03784927
  0.0776327  -0.0387203   0.00926271 -0.0296961   0.05332201  0.07273906
  0.03305848  0.04286294  0.05897691  0.04231701  0.02542947  0.05824257
  0.08430895  0.08860437  0.02740771  0.09058023  0.08515595 -0.00957385
  0.03388327  0.05937405  0.0549333   0.08095193  0.03442911  0.05285593
  0.08026917  0.08184978  0.01556775  0.09079567  0.01474489  0.00786141
  0.06399535 -0.01152138 -0.02737821  0.01890197  0.03233445  0.00681317
  0.04037555  0.00084458 -0.02214934 -0.0178767   0.06842938  0.00270252
  0.04742884  0.00269472  0.00677805] [-1.8535350e-02  4.2593833e-02  9.4555262e-03  1.7250514e-02
  4.1729979e-02  4.7293428e-02 -7.1815839e-03  6.5473065e-02
 -1.9272154e-02  4.9988166e-03 -4.5313478e-02  4.2297304e-02
  1.8243336e-03 -3.7556648e-02 -3.1103335e-02  8.2336413e-03
  3.6857743e-02 -3.0372133e-02 -3.7696350e-02  7.3134370e-02
  5.9039865e-02  5.8122251e-02  5.0504278e-02  3.8075205e-02
  7.9177529e-02  8.1481501e-02  1.4359310e-03  2.2432502e-02
  2.8496487e-02 -3.5338402e-02  8.8453060e-03 -1.2169700e-02
 -2.5090771e-02  2.2598036e-02  3.3680636e-02  8.1316628e-02
 -1.9256612e-02 -2.0946950e-02  2.4181737e-03  7.8136481e-02
  2.2489281e-02  1.0494847e-03 -4.4682533e-02  6.6308886e-02
  4.6817958e-02  6.7570314e-02  8.4610395e-02  6.2974751e-02
  7.8241423e-02 -4.4485226e-02  5.5565115e-02  7.3898390e-02
  6.5976709e-02 -1.2934791e-02 -3.2248057e-02  6.4648233e-02
  8.3620243e-02  4.4533713e-03 -4.3668780e-02 -3.1594981e-02
 -5.1394706e-03  8.9418523e-02  1.0019883e-02 -6.8580084e-03
  4.3099351e-02  4.3661263e-02  2.2913469e-02  3.8099330e-02
  3.1209730e-02 -2.3486596e-02  5.3808574e-02  3.0621160e-02
 -3.5048120e-02 -2.0766729e-02  8.1690520e-02  2.8071132e-02
  1.7903658e-02  8.3731532e-02 -1.8948557e-02  1.5474810e-02
  2.6092436e-02  5.9508942e-02  5.5842753e-02 -3.1594019e-02
  7.1612805e-02 -1.1294682e-02  8.6037733e-02  2.1317616e-02
  6.2921204e-02  4.0973616e-03 -2.6537027e-02  1.3332697e-02
 -1.8851046e-02  6.2282193e-02  8.7033264e-02  7.8335591e-02
 -1.7314231e-02  4.9760569e-02  3.7506156e-02  2.6117930e-02
  7.5191259e-02 -3.1547650e-05  5.4508742e-02  7.8616656e-02
 -2.7533200e-02  7.2561733e-02  7.7394634e-02 -2.5957990e-02
  7.4572511e-02  3.5577514e-03  3.7699655e-02  4.7805004e-02
  6.6476531e-02  5.2353339e-03  7.9410240e-02  8.5006855e-02
  1.5672572e-02  3.1925268e-02 -2.8471744e-02  8.2875535e-02
  1.8918782e-02  1.6701285e-02 -3.9597735e-02  8.0927186e-02
  7.2473660e-02  2.5070990e-02  8.7840483e-02 -3.7797201e-02
  1.7395746e-02 -1.9234266e-02  3.7959855e-02 -4.3586269e-02
 -1.7693942e-02  5.2721817e-02 -2.5563790e-02  1.8347860e-03
  3.6424641e-02  2.1488570e-02 -2.4388213e-02  1.5395136e-02
  6.0128458e-03  7.6076880e-02 -5.2422299e-03  6.3101232e-02
  1.6918745e-02  8.0247298e-02  1.8108461e-02  1.3394746e-02
 -1.3642946e-03 -4.0784568e-02  2.5430890e-02 -6.7118369e-03
 -3.9993335e-02 -2.4148109e-03  7.1985826e-02  7.5969107e-02
  1.6702011e-02  1.8436393e-02  2.5083022e-02 -1.1851505e-03
  2.4891205e-02  5.7939231e-02 -4.4072926e-04  5.1034264e-02
  1.0213049e-02 -1.9140733e-02  1.0070811e-02  7.1099654e-02
 -3.5619844e-02  2.8509477e-02  7.5398780e-02 -1.0034086e-03
  7.5720169e-02 -9.3956366e-03 -1.6990457e-02  5.7992015e-02
  8.7790806e-03 -1.5730089e-02  1.3192435e-02  3.1823196e-02
  3.0382177e-02  6.3891649e-02 -3.4867000e-02  1.3915609e-02
 -4.3506481e-02 -7.4975337e-03  6.9983557e-02 -2.7774142e-02
  2.0829758e-02  3.3612154e-02  8.9974672e-02  3.6463507e-02
  3.0571390e-02 -3.5636467e-03 -2.2117153e-02  3.5315320e-02
 -3.0310296e-03 -3.8371999e-02 -2.0846404e-02  7.1159825e-02
 -3.2523304e-02 -4.2752255e-02 -4.4997782e-02 -1.3600166e-02
 -2.3825280e-02  6.9877788e-02  5.9553869e-02 -1.6328208e-02
  3.2793120e-02 -2.1247540e-02 -8.0011981e-03  2.9234855e-02
  3.5808984e-02  3.7695952e-02  3.6556285e-02  9.9622924e-04
  5.8902208e-02  2.5309296e-03 -4.3076284e-02 -4.3168753e-02
  1.3059723e-02 -3.0053632e-02  5.2176077e-02 -2.6134428e-02
 -1.1759006e-02 -1.1489247e-02  2.2037001e-02  1.5810498e-03
  8.0062464e-02  7.9533361e-02 -7.4149705e-03 -2.9197365e-02
  4.1810203e-02  4.2561222e-02  4.3722112e-03  2.4679139e-02
  1.5749902e-02  7.7765904e-02  8.0442764e-02  4.0129792e-02
  1.5030748e-02  4.3742385e-02  8.2550749e-02 -3.9547257e-02
 -3.3582244e-02 -5.3074405e-02  5.8687147e-02  3.9656006e-02
  7.2171636e-02  5.0096739e-02  3.6723308e-02  1.0651860e-01
  2.5771256e-03  5.2814320e-02  4.7348447e-02] [ 0.03638582  0.02402799  0.05378496 -0.04059222  0.00980281 -0.0344334
  0.00643285  0.0391901   0.07850772  0.01592256  0.08099316 -0.04657567
 -0.01237117  0.06357476  0.00240564 -0.01239279  0.07331068 -0.03637622
  0.04900506  0.04857614  0.07459346  0.03583646 -0.01906559 -0.01732816
  0.0197223  -0.00316495  0.06379476  0.02782036  0.06107196 -0.02171159
  0.00643478 -0.02404597  0.08040303  0.0124664  -0.02521072 -0.03764462
  0.01823756  0.02742741  0.06484134  0.02005553  0.00579778  0.00061633
  0.03860764  0.07197632  0.00511542 -0.0252288   0.030102    0.05434511
  0.00911154  0.01354373 -0.016075   -0.02963374  0.08256695 -0.00387063
 -0.04218059  0.03078316  0.06878591  0.00527579  0.00106783  0.00537813
  0.03517767  0.05534523  0.02954093 -0.04555399  0.04454542 -0.01936442
  0.0305434   0.02264698  0.01884051  0.058657    0.03285287  0.05643911
  0.06108325  0.00299622 -0.02979355 -0.01723021  0.06969727  0.02491319
  0.05314821 -0.01477795 -0.00448435  0.01985611 -0.01057834  0.00292403
  0.08563489  0.01505232  0.06115083  0.0653036   0.06315048 -0.0240812
 -0.03545634  0.06519151  0.00708132  0.04207524  0.02388745  0.05887884
  0.06138457 -0.00294002 -0.01714461 -0.02686419  0.05780704  0.00712042
 -0.02044384  0.03205196  0.06287796  0.04931896  0.05083909  0.02635822
 -0.04246714 -0.04102787 -0.02252176 -0.01071372  0.02496063  0.06508198
  0.02685109  0.0218525   0.01552087  0.01517738 -0.0109021   0.04064626
  0.06020979 -0.04226458  0.05191093 -0.03401799 -0.03212093  0.04585757
  0.01881285 -0.02508699 -0.00218472 -0.03047875  0.05379147  0.0425629
 -0.0184689   0.02342127  0.02572098 -0.02220654  0.08570279  0.01023951
  0.02230352  0.04827117 -0.0436505  -0.00942993 -0.03688935  0.06596071
 -0.01325978 -0.03549118  0.02514846 -0.02364331 -0.02458149  0.02824787
 -0.0447015   0.08238603  0.01562714 -0.01005115 -0.01291727  0.02968988
  0.00869703 -0.00264371  0.0573087   0.04081961 -0.02130547  0.04315387
 -0.00844823 -0.00085281  0.07173111  0.08155002  0.01729477  0.01266056
  0.02397131  0.03872593  0.02699319  0.01453261  0.05562697  0.02338633
  0.04362087  0.01826293  0.06950006  0.06678735  0.03843734  0.00861584
  0.07525276  0.08577415  0.03771365  0.0697578   0.00379688 -0.04034439
  0.01789255 -0.04241916 -0.0317722   0.04999473 -0.02777306  0.06378254
  0.08625081 -0.0413872   0.02170478 -0.0423452   0.03765741  0.02404355
 -0.04776571  0.03623972  0.05474523 -0.02806829 -0.03323685 -0.02693686
  0.03698779 -0.01006777  0.07289481  0.06987304  0.0206753   0.04131995
  0.05972616 -0.0106022   0.01791275 -0.00079641  0.08649972  0.02061765
  0.01676434  0.06654678 -0.00217749  0.02865998  0.08531083 -0.00769944
  0.03893907  0.06406325  0.04034257  0.04081785  0.00695351  0.01418843
  0.06036068  0.07862581  0.0219116  -0.03277035  0.05589115 -0.04163681
  0.02504466 -0.02625125  0.07117567 -0.01594358 -0.00587231  0.08062735
  0.08337023  0.02864674  0.00270395 -0.01626086  0.04692392 -0.09447861
  0.03028711 -0.01937913 -0.02479324  0.0481166   0.07198719  0.2265593
 -0.01820182  0.07917305  0.07916527] [-3.7434090e-02  2.2738228e-02  1.2596516e-02  4.7172558e-02
  7.7437155e-02  4.1328393e-02 -4.1062394e-03  6.5072916e-02
 -3.1582862e-02  2.8938541e-02  8.3254278e-02  1.9670620e-03
  6.4190887e-02  6.5252364e-02 -2.9301429e-02 -1.8294308e-02
  3.3316001e-02  4.3045700e-02  6.9097430e-03  5.3215902e-02
  5.9922718e-02  5.2363679e-02  6.2198576e-02  8.7233456e-03
  4.4896469e-02  2.9372135e-02  6.8552218e-02  8.0650553e-02
 -4.2188667e-02  3.7284672e-02  4.5428570e-02  6.0240205e-02
  2.5450496e-02 -3.7127145e-02 -7.5014611e-03  4.7145333e-02
  7.5569592e-02  4.6878714e-02  3.8029507e-02 -3.7821878e-02
  4.0601902e-02 -9.7177383e-03  2.5859140e-02  6.6954762e-02
  4.6804626e-02  2.0343335e-03  6.9371857e-02  2.5262067e-03
 -3.6157102e-03  2.6073929e-02  8.8707969e-02 -2.6356265e-02
 -3.5857320e-02 -2.6368402e-02  6.5442055e-02  3.9814278e-03
  2.6591709e-02  6.2631518e-02  4.0479392e-02  7.5688407e-02
 -3.3243075e-02  5.5440735e-02  1.1089498e-02  3.3337824e-02
  3.5280176e-02 -3.0823156e-02  7.9500988e-02 -4.3198399e-02
  1.0710962e-02  4.0758919e-02  5.5963926e-02 -3.6875337e-02
  7.4255727e-02 -3.2503668e-02  2.7333204e-02 -2.9785745e-02
  2.6988421e-02  4.6585131e-02 -1.7903758e-02  8.4127307e-02
  1.8449035e-02 -1.9242566e-02  1.4040498e-02  6.9189362e-02
  1.8802095e-02  3.5984490e-02  3.2340635e-02  8.7599739e-02
  7.0452407e-02 -4.9889064e-03 -1.0716142e-02 -8.0059674e-03
 -2.2265118e-02 -4.2897899e-02 -1.1692553e-02 -8.6359922e-03
  4.4337012e-02 -1.7539956e-02 -1.7116018e-02 -4.1844849e-02
  3.4713745e-02  4.8871834e-02  5.1801022e-02 -2.3911022e-02
  5.9163202e-02 -2.0853033e-02  4.7258899e-02  5.3294874e-03
 -1.7521115e-02 -3.1624805e-02  4.7501594e-02  4.8101544e-02
  4.9694855e-02  2.2341989e-02 -1.6968951e-03 -3.8760707e-02
  6.7536108e-02 -3.0010011e-02  8.1253111e-02 -4.1170027e-02
 -3.0916829e-02  6.7958653e-02  7.2352216e-02  1.7940002e-02
  6.1061094e-03 -2.4117036e-02  5.7834756e-02  2.5320167e-02
  6.8256289e-02 -2.3429167e-02  7.1519762e-02 -2.7991446e-02
  7.4562654e-02  6.9263525e-02  4.9719796e-02  7.1292624e-02
 -4.4622086e-02  7.9830371e-02 -4.5716059e-03  4.1221466e-02
  7.8583350e-03 -3.7063494e-02  8.1587568e-02  8.7841168e-02
  3.7371837e-02  1.5813887e-02 -4.2441543e-02  2.8016848e-02
  2.9781543e-02  4.1148596e-02 -3.6158569e-02  2.2428511e-02
 -3.7786543e-02 -1.2880776e-03  5.0641582e-03  2.4898125e-02
  2.9959353e-02  3.2956637e-02  4.3798559e-03  2.2301719e-02
 -1.6370485e-02  7.8909799e-02  2.9091783e-02  5.4957874e-02
  1.8897757e-04 -3.0434444e-03  6.3670985e-02  6.2608682e-02
  4.6433248e-03  6.9859900e-02 -4.2699549e-02  2.8066209e-02
 -3.4193549e-02  6.3823983e-02  5.3521227e-02  3.8075405e-03
 -3.0207051e-02  3.9580461e-02 -4.1985586e-02 -3.2356545e-02
  3.4218617e-02  5.6019500e-02  7.1840629e-02 -2.1413876e-02
  1.7414248e-02  5.0328650e-02  8.8680781e-02  5.7255756e-02
 -3.0891623e-02  3.5000570e-02  6.2498730e-02  1.0293994e-02
 -4.1785501e-02  2.5215672e-02  8.4241430e-05  6.0806437e-03
 -7.6061621e-04 -3.1434633e-02  8.0721788e-02  2.9471835e-02
 -1.6237225e-02 -2.3975119e-02  2.5994064e-02  4.6152879e-02
 -8.9616142e-03  2.2708170e-02 -2.3022331e-02  2.8964970e-02
  2.0756297e-02 -8.3264383e-03  6.0425322e-03  1.8280368e-02
  2.6062356e-02  2.1618273e-02  1.6874500e-02 -1.1166717e-02
 -4.5110516e-02 -2.1125205e-02 -2.8973311e-02 -4.2452929e-03
  7.1173839e-02  3.8708773e-02  4.4869542e-02  6.9942415e-02
  1.6534703e-02 -3.6093261e-02 -3.4043733e-02 -3.6450387e-03
 -1.7970387e-02  5.8406193e-02 -2.7287737e-02  8.7181181e-02
 -3.0847840e-02  7.3581170e-03 -8.7256832e-03  1.7772762e-02
  7.4706219e-02  3.6942333e-02  6.5865003e-02 -1.3570092e-02
  4.8793465e-02  7.6473773e-02 -1.4127711e-02  3.2608635e-03
  4.6921153e-02  7.2485534e-03  1.2919828e-02  6.8461739e-02
  7.5994790e-02  1.2048929e-02  1.1971802e-02 -3.6779707e-03
  5.3936731e-02 -3.2320740e-03  3.9462987e-02] [ 1.75855104e-02  8.36761817e-02  1.21520963e-02 -1.42320618e-02
  7.19639882e-02  4.39624414e-02 -1.91550143e-02  5.23859151e-02
  4.18953374e-02  2.04315688e-03  7.90202618e-02 -1.19672865e-02
 -3.51402275e-02  7.60207921e-02 -4.27144915e-02  4.65891212e-02
  6.13030680e-02 -3.62335891e-02 -1.16875507e-02 -3.80885154e-02
 -2.71143019e-02  2.74653360e-02  5.66083528e-02  1.42386612e-02
  3.03040575e-02  6.94781393e-02 -1.83341932e-02  6.68442771e-02
  4.00911197e-02  7.41206575e-03  5.84552623e-03  6.78868592e-03
 -3.05828955e-02 -1.37916878e-02 -3.88841480e-02  1.24096870e-02
 -2.92790327e-02  2.80780601e-03  7.45395273e-02  1.03719402e-02
  2.38855346e-03 -1.92941949e-02 -1.41486973e-02  8.47861245e-02
 -2.86530238e-02 -4.49772403e-02 -4.50440310e-02  2.05515535e-03
  6.63839281e-02 -3.32668535e-02 -3.98044549e-02 -3.82078737e-02
  2.75802501e-02  7.59670809e-02  4.15201075e-02 -3.67408339e-03
  3.46893980e-03 -2.06838809e-02 -9.43532959e-03  2.78165494e-03
 -1.02867205e-02  5.23773283e-02  2.06801929e-02  8.98492262e-02
  8.00402611e-02  6.06123805e-02  1.93060357e-02 -2.43622884e-02
 -1.00458777e-02  6.44062832e-02  4.67209518e-02  3.90739739e-02
 -2.94932835e-02  3.16857062e-02 -1.15218656e-02 -1.61905196e-02
 -3.57897356e-02 -2.10630167e-02  1.74713004e-02 -1.33055239e-03
 -3.59067060e-02  7.23180473e-02  5.29870465e-02  5.49035035e-02
 -4.19775918e-02  1.53280497e-02 -3.93669456e-02 -3.87314633e-02
  4.36237231e-02  2.00756006e-02 -1.81863867e-02  6.08988889e-02
 -1.12267733e-02 -2.51890812e-02 -4.10871394e-02  3.75026725e-02
  7.00910166e-02 -2.13647559e-02  8.30014199e-02 -2.43998338e-02
 -2.82885358e-02  5.70810698e-02 -2.68300083e-02 -4.59047854e-02
  8.16381536e-03  8.02082419e-02  8.12634185e-04  4.54378175e-03
  3.10685504e-02  2.07640473e-02  1.37539888e-02  1.69965122e-02
  6.14793599e-02  2.06253529e-02  4.02567126e-02  8.56975690e-02
 -3.70555744e-02 -2.76115220e-02  6.69399574e-02 -8.05011019e-03
  3.20927091e-02  5.16117923e-02  1.82601027e-02  8.91237482e-02
 -4.23476659e-02  8.31445605e-02  2.58390252e-02  6.48299381e-02
  7.28236092e-03  7.24759921e-02 -1.83442794e-03 -4.00440991e-02
 -4.04832959e-02  8.50031618e-03  7.12744966e-02  6.64459914e-02
 -3.00646331e-02  4.05107923e-02  3.14751044e-02 -3.73636261e-02
  7.06809014e-02  7.27116093e-02  6.15605190e-02  6.33293986e-02
  6.22075573e-02  4.11941744e-02  3.20160799e-02  2.05963850e-02
  7.25645795e-02  7.76462033e-02  6.81034923e-02 -1.27970614e-02
 -4.49270830e-02 -3.41571495e-02 -3.39144375e-03 -2.49386765e-02
  6.32024407e-02  8.58529359e-02  6.38029771e-03 -1.31887430e-03
  4.77803797e-02  4.18643057e-02 -2.55832803e-02  8.51623863e-02
  4.49272022e-02  7.47232139e-02 -3.21446061e-02  8.43185931e-02
  1.40887592e-02  4.96953018e-02  4.68837470e-02 -3.49540673e-02
  2.71679554e-02  4.14675847e-02 -1.41636459e-02  1.08578429e-02
  3.33355218e-02  5.65878935e-02  2.26361547e-02  2.57014837e-02
  4.81597446e-02 -1.77294202e-02  3.50384228e-02  6.55080006e-02
 -1.21897715e-03  2.92395186e-02 -1.70297977e-02  8.02038535e-02
  1.98992547e-02  2.79829698e-03  5.05803488e-02  1.54040717e-02
 -2.70348527e-02  7.83974454e-02  8.53926763e-02  2.39684805e-02
 -2.76047196e-02  5.18114343e-02  6.76251426e-02  3.69343348e-02
 -4.35525551e-02  2.18405128e-02  1.39916586e-02  8.10274482e-02
 -4.21720222e-02  3.74415070e-02  1.79739054e-02 -1.37221664e-02
  7.90425539e-02 -2.08187848e-02  5.36049828e-02 -2.44311877e-02
  2.73479894e-02  1.66664906e-02  2.52216328e-02 -3.74260247e-02
  5.53326569e-02 -3.06687225e-02  7.62619153e-02  1.06106959e-02
  6.34826049e-02  7.23488554e-02  2.43477188e-02 -2.50777099e-02
 -3.33919898e-02 -6.03171247e-05  7.91788176e-02  1.75172817e-02
  6.65586814e-02  8.12947229e-02 -9.28497966e-03  3.55227701e-02
  6.90203607e-02  6.66863024e-02 -4.46020029e-02  7.76203424e-02
  2.47048307e-03  5.07438891e-02 -3.01536024e-02  3.50458547e-02
  5.39729595e-02 -4.59428951e-02 -3.27344015e-02  5.39289415e-02
 -2.37850379e-02  2.45031845e-02  2.55530700e-02  3.83826531e-02
  6.17930442e-02  3.66758779e-02  3.46437767e-02 -1.97171792e-01
  7.22168572e-03 -1.47847331e-03 -5.32820495e-03] [ 0.02434629  0.05787589  0.06411868  0.00678885  0.05928035 -0.02896531
  0.02507221  0.07651675 -0.01885294  0.06412693 -0.03704506  0.07934625
  0.08271689 -0.02760259  0.01031379 -0.00487764 -0.03261789 -0.00262064
  0.06168358 -0.04727323 -0.02829369 -0.00933076  0.02584338  0.01901575
  0.04828335  0.02593938 -0.03860794  0.02662846  0.07277863 -0.04507338
 -0.03206845  0.06526989  0.04838839 -0.02768223  0.06176702 -0.04988578
  0.04265349 -0.0422601   0.00269342 -0.03958881 -0.03411498  0.08345798
  0.00063263  0.06769686  0.00578606  0.05052963  0.04335768  0.00650571
  0.01589723  0.07382888  0.08567523  0.0616273  -0.01729544 -0.0025606
  0.07066189  0.08420822  0.03879744  0.00316457 -0.01134392  0.03331635
  0.0012135   0.06124    -0.01895181  0.00427666 -0.00380831  0.04997516
 -0.00428152  0.01772006  0.03446954  0.04924395 -0.00352608  0.06045034
  0.01959143  0.04458218 -0.01898986 -0.04705154 -0.03768211  0.03502785
  0.04132382  0.01320037  0.06021294  0.05594251 -0.01668448 -0.00497032
  0.08342294  0.08214955 -0.00233913  0.0863566   0.00394737  0.01971175
  0.06888882 -0.04463314 -0.03151377  0.03140957 -0.04868039 -0.02679292
 -0.03510602  0.05815847 -0.02646864 -0.02410983 -0.01391802  0.01909074
 -0.03526897 -0.03470486 -0.04198919 -0.01082789  0.06212257 -0.0020549
 -0.02029346  0.03551632  0.08196618 -0.03198181 -0.0500218   0.0153519
 -0.00401967 -0.04167087 -0.03991972 -0.03173905 -0.04683411 -0.02984498
  0.04158281  0.07417847 -0.02594919  0.02496308  0.07613407  0.02643784
  0.06548892  0.07771629  0.02350485 -0.02666873  0.02988022  0.0413193
  0.06057087  0.06547276 -0.00412919  0.06156723 -0.02970861 -0.00942473
 -0.02897037 -0.00350654 -0.03263704 -0.00711201  0.02530314  0.05024155
  0.05315385 -0.00182928  0.0106806  -0.03625016  0.00610672  0.06208878
  0.05275141  0.06339636  0.00273262  0.02222289 -0.03985646  0.04223913
  0.01465743  0.08770427 -0.01712031  0.03540768  0.00994689  0.00063531
 -0.00985376  0.05221292  0.06243148  0.03995191  0.01640815  0.03378524
  0.04051792 -0.01881795  0.05021083 -0.00608608  0.04938056  0.07860222
  0.07223677  0.02716304  0.07072662 -0.02865016  0.01055299  0.01359239
  0.04206821 -0.03853675  0.0353427   0.06822728  0.07789494  0.04654419
  0.04584694  0.05996551  0.03775824 -0.02788329  0.07948123 -0.02944749
  0.08298476  0.01896859  0.06807071 -0.0380231  -0.00192265  0.01772016
  0.06160504  0.0548314   0.05096731  0.01892378  0.02861836  0.04479719
 -0.02248803  0.02636597 -0.02706863  0.04567549  0.02831627 -0.01061176
  0.02175881  0.0313798   0.01535705 -0.03552844  0.00955636  0.04497548
 -0.03998205  0.0571387   0.08217333  0.06147398 -0.0064967  -0.02643733
  0.03954694  0.06086487 -0.03769685  0.00715325  0.04701416 -0.03176655
 -0.01432863  0.05409544  0.02208947  0.03270764  0.03739606  0.00481537
  0.01606425  0.03745139  0.04761762  0.04767408  0.03936466 -0.04256261
 -0.00066164 -0.04709535  0.0025885   0.01939101 -0.0004353  -0.03640947
  0.04648745 -0.01571169  0.082235   -0.04256858 -0.0416242  -0.14095968
 -0.03337675  0.07181421  0.01725619] [-0.02832532 -0.04283034  0.0026372  -0.01235106  0.02961824  0.06786423
 -0.03857725 -0.04790242 -0.01622107  0.03906003 -0.04098481 -0.00854362
 -0.02669611  0.04530058  0.07207998  0.00882273  0.00215455  0.0657674
  0.01200435  0.02256235  0.00141191  0.07488523  0.04416446  0.07152178
  0.02345208  0.08196518  0.04853468  0.06280276 -0.0002672   0.05050386
  0.03377818  0.00175679  0.0477928  -0.00927983  0.00486315  0.04712135
 -0.02871347  0.04951134  0.05465173  0.08158675  0.00386666 -0.04124565
 -0.03882376 -0.0072605   0.05093353 -0.00831482  0.04735644  0.0335308
  0.04555669  0.03212149  0.03820622 -0.01319198  0.00513529  0.07296145
 -0.02730627  0.04914783  0.01256161  0.00262037  0.07832136  0.05242663
 -0.03091811 -0.01278104  0.06775995 -0.01657659 -0.04307518  0.07727756
 -0.0314448   0.05768695 -0.00937862  0.01091384  0.02895643  0.02902465
  0.02210357  0.06923414  0.06130408  0.00540775  0.06126256  0.07733783
  0.07775173  0.03941039  0.08414762  0.07331605 -0.02044011  0.0163534
  0.03104218 -0.04482295  0.01081594  0.05237933 -0.02715423  0.05717702
 -0.03939549  0.02722019  0.0393297   0.02597371  0.06541914  0.06231805
 -0.04573127  0.01441702  0.00248479  0.07981505 -0.01341489 -0.02327512
 -0.01741609  0.07992129  0.02206275 -0.0283333  -0.02702866  0.07132515
  0.03537839  0.05306661 -0.02375037 -0.01021629  0.06492982  0.02015049
  0.03905861  0.01696783  0.0636229   0.07809762 -0.03317559  0.04013502
 -0.0185581   0.07964464  0.03083237  0.04767918 -0.03485753 -0.01373919
 -0.04011213  0.06423973  0.07562796  0.03184212  0.01304291  0.0838863
  0.07356544 -0.03603302 -0.01836923  0.07697196  0.01902195  0.03644247
  0.03933749  0.01757321  0.05792761 -0.00104707 -0.02454318 -0.03735759
  0.00108426  0.07825931  0.06730529  0.03224213  0.00615713  0.0635841
 -0.00771081  0.0416478   0.033285   -0.03129068 -0.04078787 -0.01072564
 -0.00893552  0.01697605 -0.00524117  0.04369435  0.06199193 -0.01309751
 -0.01809666 -0.0171125   0.07188045  0.07570131 -0.02621409 -0.02564868
  0.08227047 -0.04340054  0.02962324  0.03553497 -0.00776867 -0.03975926
  0.03424619 -0.01794693  0.05112313  0.0539208   0.02658927  0.08278057
 -0.0224453   0.02650919 -0.02129234  0.08455785  0.07489467  0.03284173
  0.00086303 -0.00125737  0.06074395 -0.00181534 -0.04614244  0.08597497
  0.03503535 -0.04519615  0.00043129 -0.0385734  -0.04277901  0.02372682
 -0.02663717  0.08263227  0.08084387 -0.03525683  0.08173428 -0.04579919
 -0.01403344  0.04929442  0.05184191 -0.01495341 -0.02466405  0.031218
  0.01198747  0.02237894  0.06564701 -0.0314935   0.0633776   0.05351793
  0.03937061  0.06169776  0.07490182 -0.00261601 -0.03452558 -0.01623981
 -0.03672666  0.07270981 -0.0183032  -0.0041354   0.07125616  0.06908768
  0.00378437  0.02865045 -0.03362348  0.06178486 -0.01829784  0.07581818
  0.0637143   0.05224409 -0.02029624  0.03596099  0.08463795  0.02985084
  0.06142328  0.02509962  0.04387851 -0.01352314  0.05128408 -0.00941918
  0.0488727   0.07326838 -0.01913195  0.05288446  0.06154145 -0.09171338
  0.08085992 -0.01587165  0.05071663] [-0.02344229  0.07202638 -0.00074867 -0.01323336  0.06012185  0.03989684
  0.01466915 -0.00886815  0.01017336  0.00485968  0.00287518 -0.02778187
  0.07423779  0.06211897 -0.02214957  0.04882539 -0.00049966  0.08773032
 -0.03901668  0.0453393   0.03409417  0.05808623  0.07445823  0.02577357
  0.01843974  0.01591199  0.03447036 -0.02154005 -0.03851198  0.08374698
 -0.0421032   0.08268688  0.03920161  0.01005292  0.02069686  0.04142513
  0.04684738 -0.00054679 -0.01536496 -0.00872583 -0.01043412  0.08632562
 -0.02382908  0.01296821  0.02780249 -0.03962227  0.02475539  0.06761372
  0.00728457  0.04067998  0.01511488  0.03384333  0.01632919 -0.04358576
  0.06546597 -0.01095738 -0.01322698  0.03394191  0.02116692 -0.02506561
  0.01574371  0.01959894  0.0778899   0.07956426  0.04744997 -0.00429383
  0.04405106 -0.04116175 -0.03102286 -0.01829694  0.04287302 -0.04450487
  0.08385734  0.03922779  0.01964764  0.05639014 -0.0146942   0.00927809
  0.04265312  0.08510774 -0.02354988  0.00391488  0.04514815  0.01218193
 -0.0245517   0.03483459  0.06379091  0.02645632  0.00328912  0.0226975
  0.06023185  0.06671923  0.02743702  0.07292586 -0.03938997  0.03391584
  0.00713889  0.03916027 -0.00596205  0.0783159   0.08893827  0.07067035
  0.02721567  0.06714202 -0.01641359  0.06929416  0.01475804  0.05351897
  0.08971728 -0.03639285  0.02286973  0.0831469   0.06242368  0.06499331
 -0.0314156   0.02604358 -0.0200799   0.08903237  0.02679441  0.02058037
 -0.04184195  0.05156419  0.01402624  0.0524995   0.04999027  0.05126697
  0.02878474  0.02252238 -0.03299135 -0.03695269  0.02759834 -0.01615249
 -0.03941988  0.03585154 -0.03499219 -0.01026121  0.08579353  0.0487485
  0.03019281  0.07847692  0.06924827  0.03371515  0.02866763  0.05264766
 -0.03049425 -0.00516079  0.04444312  0.05751351  0.07970741  0.07994789
 -0.03363309  0.04898481 -0.02549361 -0.03850006  0.00200491  0.00495236
 -0.02582625 -0.04095626 -0.02966355 -0.03412255 -0.03967635 -0.02103863
 -0.03072079  0.01839947  0.05247556  0.01257429  0.0189548  -0.00378489
  0.04206077  0.07250979 -0.04392549 -0.00420134  0.07298376  0.04916118
 -0.02943019  0.06349431 -0.01890044  0.07412634 -0.01238175 -0.01638094
 -0.03245539 -0.04406733  0.08303204  0.01740744 -0.01384397 -0.03144553
  0.07836915 -0.0323568   0.04771485  0.0112479   0.03957918  0.08444796
  0.07867974 -0.03752616 -0.01050624  0.01886896 -0.02521672  0.0017562
 -0.01947435 -0.03614028  0.03427178 -0.00429608  0.06253449 -0.04462053
  0.00188506  0.0866629  -0.03601925  0.00051217  0.06988042 -0.00010067
 -0.03100887  0.06279986 -0.01872521 -0.03438656 -0.02660425  0.02650848
 -0.00396552  0.01399134  0.04971514  0.01693684 -0.01008529  0.01952394
  0.08741802  0.03606454  0.02577368 -0.03457961  0.03976877 -0.03696859
 -0.01989392  0.00037868 -0.05241439  0.01515146  0.01704231 -0.00396421
  0.08154946  0.04973238 -0.00927785  0.00409376  0.08258281 -0.04066874
 -0.02804205  0.04042689  0.04042402  0.06178     0.03733279 -0.03346639
  0.04223415 -0.01219538 -0.04120026  0.05949908  0.04197574 -0.01534748
 -0.01454588  0.05357128  0.04702699] [-0.01352453  0.0019652   0.00393678 -0.0375878   0.00471895 -0.07028919
  0.03526067  0.01449953 -0.00067344 -0.02540275 -0.04788399 -0.04070384
 -0.05222838 -0.02132808 -0.0307417  -0.04610226 -0.04385062 -0.0796735
  0.02729671 -0.03255863 -0.02101619  0.04495083  0.01983532  0.02331125
 -0.05141195 -0.05359843 -0.0526454  -0.02638089  0.01713022  0.0061352
 -0.02331567  0.03569591  0.04268137 -0.04863016 -0.01400681 -0.06597343
  0.03344095  0.02633112 -0.06130193 -0.05123382 -0.07561533 -0.02897261
 -0.03331945 -0.07267009  0.01209693 -0.08366167 -0.03188917 -0.02726163
 -0.01061848  0.02472246  0.04713728 -0.03332831  0.02685783 -0.01593027
 -0.01178593 -0.04550664 -0.01433367 -0.04120938 -0.00057333 -0.03426545
 -0.05500811  0.02502776 -0.04187984 -0.05072655  0.04422378 -0.03948503
 -0.03809907  0.00079191 -0.0365872  -0.04486661 -0.05727461  0.00307472
 -0.00952123 -0.0301275  -0.05947982 -0.0218642  -0.00829968  0.04010626
 -0.08084567  0.00773919 -0.00166203 -0.04404177 -0.01635196  0.04013213
 -0.00847983 -0.08562628 -0.01838974 -0.02972465 -0.02135845 -0.01515234
  0.02544965  0.03182159  0.00743628 -0.04384414 -0.00800674 -0.04701116
 -0.05044552  0.02423246 -0.03047492  0.02384942  0.01729433 -0.02207902
 -0.08502655 -0.03331231  0.01379275 -0.05749052 -0.04671946 -0.00835418
  0.03937553  0.00556356 -0.06564557  0.04348162 -0.0055946   0.03893483
  0.04488964  0.03026323  0.00040781 -0.02418829 -0.07062721 -0.0160755
  0.04213509  0.03010415  0.00118913 -0.04431125 -0.02593777  0.01385325
 -0.01388465 -0.01945525  0.01253476 -0.0167749  -0.02073353 -0.08284347
  0.0015561   0.04374658 -0.07356419 -0.03714476 -0.02198229  0.02054124
 -0.06720882 -0.04080258 -0.05192535 -0.07230781 -0.05385972  0.01196246
 -0.03137995 -0.01461332 -0.01622081 -0.02227926 -0.00837489  0.0156866
 -0.07291494 -0.04943958  0.0130413   0.02311681 -0.05492361 -0.03570673
  0.04574665  0.01788209  0.00179718 -0.05189188 -0.0497613   0.01713513
 -0.04494931  0.04416544 -0.06774047 -0.00425579  0.01055314 -0.0441022
  0.02289334 -0.00749411  0.01849855  0.04596574  0.0240937   0.01831258
 -0.0391474   0.02585199 -0.07224157 -0.08602692  0.03743583 -0.03689075
 -0.00021412 -0.03701762  0.02981551  0.03059799 -0.08550854  0.03655451
  0.02413404  0.00486481 -0.06665688 -0.05967801  0.01796519  0.03598552
 -0.00777411 -0.03818384  0.02196682 -0.01872467  0.02841711  0.0448665
 -0.00119463 -0.07169279 -0.00212768 -0.08316875  0.01134674 -0.03770526
 -0.02347841 -0.01826792 -0.00407617  0.01406258  0.03013569 -0.02163084
 -0.0770016  -0.06440941 -0.05712064 -0.05292989 -0.00054188 -0.03485662
  0.04836752 -0.06551252  0.0429234   0.00984011 -0.00525297  0.00488174
  0.00520294 -0.06377195  0.03074474  0.01541217  0.04189612 -0.04182541
  0.0268479   0.02593479 -0.0003291   0.03688713 -0.02860081 -0.03150007
 -0.03404454 -0.00519641 -0.03980812 -0.00272946  0.04348887 -0.02475351
 -0.00168034 -0.05009939 -0.05764633  0.00187459  0.02581823 -0.02186809
 -0.07194841 -0.0439948   0.02702359  0.02575454 -0.05310031  0.15326476
 -0.04461994  0.03906728 -0.02062429] [-8.2225285e-02  5.4654025e-02  6.7407444e-02 -2.9312083e-02
 -3.0716142e-02  4.9831420e-02  1.0700746e-02  3.4564540e-02
 -4.0720817e-02  2.0614959e-02 -2.0885196e-02  7.4106410e-02
  1.2422313e-02 -1.9897779e-02 -1.7790418e-02 -3.5998859e-02
  5.5706017e-02  1.2842612e-02  5.0791707e-02 -3.6022779e-02
  2.2577547e-02  5.6815870e-02 -4.5955986e-02 -1.0947339e-02
  5.0419498e-02  6.1619855e-02  3.2475099e-02 -4.1462272e-02
 -2.5639191e-02  3.0251684e-02  2.3925303e-02  3.6834583e-02
  2.4905426e-02  2.1329207e-02  6.2581606e-02  1.3401863e-02
 -2.7599582e-02 -4.7074869e-02  4.4266958e-02 -3.7159178e-02
  7.0360705e-02  1.0584602e-03  6.0591452e-02  3.8829062e-02
  3.1913199e-02  9.7237518e-03  6.6037193e-02  5.3339165e-02
  7.6133855e-02 -3.3742864e-02  4.6071090e-02  2.8309355e-02
  1.5609322e-02  6.5801404e-02  7.4624054e-02  7.0230782e-02
  8.0558136e-02  7.0023507e-02  5.9669115e-02  7.7485502e-02
  7.2950706e-02  6.7262207e-03 -4.4840835e-02  2.9428855e-02
  6.1690535e-02 -2.4633063e-03 -3.6869958e-02  8.0024354e-02
  6.9172747e-02  4.4892576e-02  5.1483046e-02 -1.1608203e-02
  9.9786581e-04 -1.2640313e-02 -1.0360324e-02  7.0614551e-05
  7.5169392e-02 -8.3157085e-03  4.5772325e-02  6.8118125e-02
 -1.2899877e-02  4.6700966e-02  6.6281557e-02  2.6738348e-03
 -1.7263280e-02  3.4237059e-03 -2.8787779e-02  7.1860120e-02
 -3.9603088e-02 -4.4402078e-02  7.2783522e-02 -2.0168446e-02
  7.5392351e-02  6.6380487e-03  8.2434088e-02  1.1754222e-02
  3.8220680e-03 -3.4199368e-02 -4.0393408e-02 -2.4610597e-03
  2.7429320e-02  3.2361943e-02  5.1860977e-02 -2.4121257e-02
 -2.7185768e-02  2.0278610e-02 -4.1764494e-02 -2.8243307e-02
 -2.5608690e-02  3.0160842e-02  3.4443054e-02  3.3802677e-02
 -1.4346955e-02  3.1900849e-02  1.1354930e-02  8.3320022e-02
  7.9839297e-02  9.0259034e-03  7.6297559e-02  5.9417702e-02
  7.3767535e-02 -1.1726092e-02 -4.4127446e-02  7.2801985e-02
  7.6763459e-02  1.7183639e-02  6.5769136e-02  3.2939203e-03
 -2.8101282e-02  1.8174678e-02  4.5171056e-02  6.8231732e-02
 -5.4342933e-03 -2.1388594e-02 -3.5050118e-03  6.5099165e-02
 -3.6362663e-02  8.8671565e-02  4.9127014e-03  5.4308597e-02
  1.2298059e-02  7.1520984e-02 -8.7626996e-03 -3.9761089e-02
  7.6156221e-02  6.3959062e-02  4.6017978e-02  5.0142308e-04
 -2.7012320e-02  5.6475062e-02 -3.8037781e-02 -8.8224724e-06
 -2.1641258e-02  6.6496469e-02  8.5398905e-02  2.5553202e-02
  2.2759823e-02 -2.1301059e-02  5.5690431e-03 -7.1594808e-03
 -2.6945012e-02  3.9875638e-02 -1.8258799e-02 -4.5314513e-02
  3.0114252e-02 -4.0316902e-02  1.2081706e-02  1.2026997e-02
  8.4739953e-02  2.0828759e-02  6.7198351e-02  6.8352021e-02
  8.0320992e-02 -3.6323696e-02  2.3718849e-02  7.9850495e-02
  3.1295944e-02 -1.0745656e-02  8.8075563e-02  6.6333391e-02
  6.2213849e-02 -3.0387646e-02  5.8397176e-03  6.0971513e-02
  4.6078138e-02 -3.5008803e-02 -2.3119090e-02  2.4360064e-02
  6.9403917e-02  7.8735828e-02  5.5042271e-02  6.2568098e-02
 -4.0281169e-02 -4.5041777e-02 -4.2025775e-02  5.7982616e-02
 -2.1268141e-02  1.6840212e-06  6.1362021e-02  5.0861489e-02
  3.4766920e-02  5.7005528e-02  7.6879039e-02 -2.3379466e-02
 -2.3656415e-02  2.3012329e-02  5.2086059e-02  8.6798910e-03
  4.1312579e-02 -2.2610543e-02  2.6700072e-02 -3.1791702e-02
 -4.5484781e-02  2.5374977e-02  7.0918903e-02  4.9938377e-02
  5.2892542e-03  6.4330503e-02  5.5806812e-02  4.3339446e-02
 -3.9109454e-02 -1.2077294e-02  7.0716254e-02  3.6173922e-03
  6.5819986e-02  4.3109588e-02  3.2843471e-02 -1.0526829e-02
 -1.7226685e-02  1.0993733e-02  6.9277417e-03 -2.6658418e-02
 -3.9693199e-02  6.4120993e-02 -1.9880053e-02 -2.1712322e-02
  2.1812283e-02  6.6249944e-02 -3.1118490e-02  8.8404320e-02
 -4.6503529e-02 -3.5685401e-02  8.4044293e-02 -2.8470056e-02
  4.0180661e-02  4.3363128e-02 -4.4523213e-02  7.3970434e-05
 -3.1709604e-02  1.6837266e-03  3.5294443e-02 -1.2849046e-01
  3.6074653e-02  6.4651191e-02 -8.4661320e-03] [-0.0804004   0.08022566 -0.04285514  0.07043183  0.03552539 -0.01291348
  0.0169492  -0.02169758  0.01794732 -0.03620426 -0.00830644  0.01632286
 -0.02869133 -0.02592707  0.03851494  0.00620566 -0.00348579  0.01095061
 -0.02782654  0.03912659  0.08637862 -0.03221262  0.03276648 -0.03480025
  0.01699404  0.00457664 -0.00606803  0.09143884  0.00510428  0.02297868
  0.02295544  0.08451024 -0.00645332 -0.03904589  0.08005168  0.07343788
 -0.00295598 -0.01236174  0.08111131 -0.01833818 -0.00288503 -0.02646802
  0.08501346  0.06191182 -0.02817201  0.0572188   0.07059933  0.03797013
  0.06591943  0.05681165  0.01707703  0.0084522   0.07609023  0.05855674
 -0.01182959 -0.0280124   0.01458769  0.00172831 -0.00161546  0.0905657
  0.06228067  0.00884616  0.07301848  0.05943748  0.00378392 -0.02084263
 -0.01030904  0.04382721  0.02648158  0.01844678  0.00974044  0.05038814
  0.08315634 -0.0404058   0.04477236  0.06205307  0.00655439  0.03124894
  0.05262633  0.08679344  0.05221498  0.04809235 -0.00851508  0.00186304
  0.0141973   0.0656641   0.01133069  0.00329111  0.06503765  0.05088422
  0.02220748  0.08245078  0.00570875 -0.04054267 -0.00813882  0.05988641
  0.06770224 -0.01884256 -0.03330779 -0.02594552 -0.00377873  0.024898
 -0.02078728  0.03546957 -0.03869596 -0.01431237  0.02827938  0.04445411
 -0.0337294   0.03045604  0.0818461   0.00410676  0.08845665  0.07853583
 -0.03464056  0.08093798 -0.00354908  0.03809985  0.07550777  0.02707633
  0.01044636 -0.03174054  0.06764401  0.06169523 -0.03875376  0.0916416
  0.0663813   0.03818924  0.05610561  0.06882904  0.03343909 -0.00497497
  0.09126445  0.09150158  0.0524651   0.01030772  0.06153392  0.06740896
  0.01450034  0.03597651 -0.01571733  0.04896238  0.02432377  0.02432238
  0.09166372 -0.04334253  0.05225054  0.08036339 -0.00024258  0.02420036
  0.0423575   0.08045868  0.07959554 -0.00591867 -0.01383307 -0.03388141
  0.04217546 -0.01207139  0.01452617  0.02299618  0.04337952 -0.00402902
  0.06770342  0.04402395 -0.03815578 -0.01273074  0.01582516  0.06175115
 -0.03076016  0.08164129  0.06118907 -0.01131946 -0.02822077 -0.00642035
 -0.02370938  0.07821557  0.08339231  0.06255392  0.06453579 -0.01854164
  0.03346084  0.07889451  0.03593163 -0.02215983 -0.03428736  0.09127226
  0.0138117   0.00866185  0.01294429  0.04775926  0.08759418 -0.02615061
  0.04370906  0.04065478 -0.01503851  0.06839523  0.06094823  0.04165209
  0.0668238   0.08444893  0.06533653  0.04949627 -0.01530932 -0.01231139
 -0.03408017  0.083694   -0.03037669  0.05598081  0.00389245 -0.02121123
 -0.007701   -0.01864576  0.04429367  0.08211067  0.03436334  0.03609642
 -0.00441633 -0.00406938  0.0174098   0.09311093  0.01022896 -0.00329161
  0.05210784  0.09173062 -0.00772553  0.07515265  0.03058519 -0.02800075
  0.04513756  0.01595257 -0.04024576 -0.00822908  0.05092829  0.03523934
  0.03456658  0.04179412  0.08046851  0.01711625  0.06944314 -0.03592561
  0.04469101  0.04503651  0.08188119 -0.02347697 -0.03413896 -0.00029546
  0.07753842  0.07462655 -0.00037883  0.0175809   0.02231411 -0.11054673
  0.00874586 -0.00722934  0.06546752] [ 0.01720251  0.06893986 -0.04042986 -0.02013176 -0.01940023  0.06413077
 -0.02223988  0.00528357  0.06967669  0.06403141  0.03042684  0.03322081
 -0.02473532 -0.02250912  0.05650934  0.00968742 -0.01780363  0.0607133
 -0.00338978  0.03779929  0.04598399  0.08524443  0.0223708  -0.01151045
 -0.03188924  0.07921296 -0.01447144 -0.02237626  0.08993838  0.08891679
  0.0702817   0.05480643  0.06713048 -0.02734498  0.01539312  0.07592732
 -0.01860764 -0.00227805  0.05698624  0.04925321  0.06171874  0.08147508
  0.01550404  0.03985067  0.08287083  0.0178637   0.05169576 -0.003091
 -0.0409686   0.02888113  0.05297324  0.02209468  0.02310114  0.00828324
  0.06183134 -0.0262312  -0.03111214  0.01964274  0.04941209  0.03872187
  0.04119501 -0.03864608  0.08679324 -0.03311945  0.04004424  0.0489438
  0.05960359 -0.0392628   0.07749094  0.01487878  0.08605497  0.08254137
 -0.03442232  0.06210196 -0.01513163  0.06602498  0.00900739  0.03166416
  0.05614578 -0.01432216  0.03655196  0.00118689 -0.04461135  0.00383923
  0.00121295  0.07052752  0.08429294  0.01780615  0.00208838  0.06703077
  0.06195398  0.05113053  0.07592031  0.03576707  0.04574056 -0.01440203
  0.01309005 -0.03343453 -0.00814346  0.01449255  0.03528941  0.04074045
  0.04143159  0.07894691  0.08531611  0.03319382 -0.03413045  0.05427549
  0.05435143 -0.02197821  0.00119454  0.02977958  0.08766324  0.062842
  0.00063747  0.03692466  0.03918782  0.03943865  0.05872749  0.0910579
  0.08837122  0.00499052  0.04774598 -0.03582245 -0.0428917  -0.0429663
  0.0383878   0.00525332  0.08734897  0.05480614  0.08134449  0.04252528
  0.06422941  0.05194817 -0.0432832   0.01791997 -0.04340921  0.00360635
 -0.00042428  0.08782914  0.0104693  -0.03462569 -0.01499959  0.01529978
 -0.00513412  0.06551436  0.05097547  0.07951715  0.07587405  0.02759037
  0.02516652  0.0102372   0.05642799  0.06129082  0.04959042  0.04283132
 -0.02037071  0.0317644   0.00874552  0.06215807  0.01379312  0.07220551
  0.03175763  0.01092516  0.0889289  -0.02583684 -0.03349067  0.05599258
  0.01344837 -0.04246441  0.05299426 -0.00579344  0.08253852 -0.01414276
  0.05830388  0.08798417 -0.02754775 -0.03109707  0.0523574  -0.02014082
  0.02181578 -0.02818335 -0.04223984  0.05728042  0.04802992  0.06277502
  0.03177265  0.01545952  0.08691441 -0.04089172  0.08625399  0.0321158
  0.09186576  0.0104671   0.01031605  0.04905865  0.00035436  0.06364619
  0.06581975 -0.00904233 -0.02635503 -0.0187474   0.04886815  0.0677179
  0.01604545 -0.02588106  0.04815688  0.08842891  0.0840474   0.07436502
  0.04382213  0.05595669 -0.00423243  0.05064916 -0.02701558  0.00552436
  0.05075092  0.05095843  0.01592013 -0.033004    0.05828976 -0.04160913
  0.00189518  0.06145304  0.00907818  0.00126029 -0.01862791 -0.01751423
 -0.01203597  0.00144461 -0.02095648 -0.03418062  0.08880919 -0.01130754
  0.02759285  0.02488663 -0.02035441  0.07980272  0.00172979 -0.04374307
  0.01815758 -0.00122733 -0.02545628  0.00579627  0.04260001 -0.05159941
  0.06962668  0.06862625 -0.03923694  0.08768566  0.05661266  0.03623342
  0.00076236 -0.00239524 -0.00997263] [ 3.65466834e-03  3.19567397e-02  6.56699389e-02  6.88448399e-02
 -3.05746347e-02  3.21230553e-02  6.25054762e-02  4.59859706e-02
 -2.57027056e-02 -1.14935767e-02 -1.16053438e-02  7.26141408e-02
  4.49049175e-02  8.25858861e-02  3.41797881e-02  7.14621693e-02
  6.14627637e-02  4.48266529e-02  3.67068276e-02  5.77376783e-02
  7.15005537e-03 -2.17368044e-02  5.23950718e-02  8.94328058e-02
  3.57403941e-02  4.88301814e-02 -2.23759259e-03 -3.25119519e-03
  2.18455847e-02  6.68014809e-02  8.25332925e-02  4.66230735e-02
 -1.68308802e-02  1.90188382e-02  7.11259022e-02  5.34928069e-02
  7.18662813e-02 -2.37694569e-02  7.56544247e-02  1.27268462e-02
  2.17445400e-02  2.64350902e-02  7.74732307e-02  8.61924589e-02
 -2.63923649e-02 -3.33707333e-02 -3.42938751e-02  3.73785160e-02
 -3.91295217e-02  4.70916480e-02  2.92294808e-02  6.13831431e-02
 -2.88990736e-02 -1.67945512e-02  2.67323460e-02  4.34099250e-02
 -4.02957238e-02 -6.30272552e-03  4.68758531e-02  5.63944168e-02
  5.48624098e-02 -3.79473791e-02 -2.56697759e-02  5.26429936e-02
  3.68084088e-02  4.43938412e-02  2.22195610e-02  5.27360141e-02
  2.10109279e-02  8.25551748e-02 -1.15690231e-02  6.40661046e-02
 -3.09196319e-02  5.12611642e-02  2.15182342e-02 -4.01105024e-02
  2.75761634e-02 -2.19122637e-02  2.73594297e-02  3.72942761e-02
  2.01865677e-02  5.80437630e-02 -1.14298407e-02 -3.65887135e-02
  3.46651897e-02  5.71901686e-02 -2.49837991e-02  6.97669759e-02
 -2.14894060e-02  7.73807019e-02  1.01695480e-02  1.69379171e-02
 -1.15391659e-02  1.33675318e-02  3.26437019e-02 -8.15939624e-03
  3.36813629e-02  2.20735632e-02  3.91985998e-02  8.35088268e-02
 -6.73424406e-03  1.72487292e-02  1.91238746e-02  3.46698500e-02
  3.96637656e-02  7.25284144e-02 -3.63738388e-02  3.00795566e-02
  4.29356880e-02  4.79449257e-02  3.90008204e-02  6.10938482e-02
  2.54595689e-02  8.81492645e-02  5.96383400e-02 -3.02986726e-02
  3.65496650e-02 -6.51221257e-04  4.58413512e-02 -2.68217269e-02
  3.67456973e-02 -5.08296955e-03 -2.64010131e-02  6.32231459e-02
  8.34486559e-02  4.17585559e-02  6.82756230e-02  3.15992199e-02
  9.91719309e-03  2.67171003e-02  4.30679433e-02 -2.03106534e-02
  4.87117544e-02  1.47474511e-02  2.31187381e-02  1.06735546e-02
  4.01455685e-02  1.78869516e-02  4.09116000e-02 -6.96903910e-04
  2.63436828e-02  9.76635981e-03  7.91450683e-03  1.42903076e-02
  3.17523140e-03  2.26614475e-02  1.43400589e-02  5.65464236e-02
  4.95619997e-02 -4.14751433e-02  3.72857042e-02 -4.13650386e-02
  4.20630723e-02  1.98435858e-02  1.64542217e-02  4.38293517e-02
  1.05591295e-02  7.85649493e-02  1.39549980e-02  5.44107519e-02
  6.98313192e-02 -4.11905907e-02  3.23266536e-02  1.44604808e-02
  3.88761573e-02 -3.12702172e-02  8.56617615e-02 -2.49342695e-02
  7.83689171e-02  1.51371974e-02 -2.04896629e-02  3.16776708e-02
  2.38685180e-02  3.17100026e-02  1.60437375e-02 -1.37061458e-02
  2.07728706e-02  5.17478250e-02 -1.01348860e-02  2.78685838e-02
 -4.26062457e-02  6.92363502e-03 -2.95730028e-02  7.92100877e-02
  6.37038574e-02  1.59809906e-02  7.77307227e-02 -1.20136505e-02
  4.23723683e-02  7.29203522e-02  6.25168085e-02 -2.08669323e-02
 -3.90889943e-02  9.15311500e-02  3.09013780e-02  1.45778982e-02
  4.33046035e-02  6.33274913e-02  1.21860243e-02  3.78163643e-02
  3.48847359e-02  7.26076961e-02 -1.23401294e-02  4.14168760e-02
  1.88633706e-02  1.77499894e-02  3.02845687e-02 -1.39388507e-02
 -4.77174472e-04 -2.11066604e-02  2.56290529e-02  4.32058750e-03
  7.89717883e-02  8.29370543e-02  2.06287205e-02  6.52763322e-02
  1.55136324e-02  1.60574187e-02  7.48624355e-02 -6.85117068e-03
  2.69176401e-02  3.11003532e-02  8.77616778e-02  1.55349094e-02
 -3.59436907e-02 -9.16459889e-04  8.19704682e-02  1.92257967e-02
  8.90292227e-02  4.99087647e-02 -1.78165603e-02  9.37613100e-03
  2.45291064e-03  4.51145432e-04  4.81707081e-02  6.93245828e-02
  6.40685949e-03  2.02981383e-02  2.24010963e-02  5.34435511e-02
  7.50668645e-02  9.57402121e-03  1.89808141e-02  7.16349855e-02
 -8.04022513e-03 -4.97702211e-02  5.74522130e-02 -3.57333943e-02
  1.97102968e-02  7.52139613e-02  8.92419219e-02  1.84831098e-02
  5.39365187e-02 -3.98057653e-03  5.34937353e-05] [-2.23175101e-02 -7.70531036e-03  3.93414497e-02  7.61033297e-02
  7.21129850e-02 -2.70927455e-02  2.15980113e-02  2.24627405e-02
  8.23187009e-02  6.48434684e-02 -3.06921061e-02  5.15311360e-02
 -2.76702568e-02  6.09100349e-02 -2.40141489e-02  1.45274047e-02
  7.40924031e-02 -4.34947349e-02  2.02427041e-02  3.91617566e-02
 -3.46763022e-02 -4.31856327e-02  1.02504659e-02  4.42452058e-02
 -4.07687426e-02  3.19645368e-02 -1.68037675e-02 -1.04638096e-02
  6.99491426e-02 -8.80754436e-04 -1.29279364e-02 -2.93167476e-02
  4.33927067e-02 -1.01248249e-02  2.22350508e-02 -1.69520788e-02
  6.38380498e-02  3.33105251e-02 -4.79057245e-03  6.13245107e-02
 -4.29826714e-02  7.85799474e-02  6.19296357e-02  6.80820048e-02
  2.72625368e-02  4.73110229e-02 -4.64812294e-03 -8.55818111e-03
  1.49492705e-02  2.42235442e-03  7.97483046e-03  8.57850723e-03
  6.21848442e-02 -4.13723066e-02  8.61187931e-03  1.01770333e-03
 -2.82004545e-03  8.36414183e-05  6.17909543e-02  3.09611671e-03
 -8.19925684e-03 -2.80265207e-03  9.08393115e-02  5.94946695e-03
  1.16123632e-02 -9.69230291e-03 -2.75284294e-02 -1.25591271e-02
  4.27510962e-02  5.21863997e-02  7.53461570e-02  2.00333633e-02
  6.88653290e-02 -2.39946842e-02 -6.43454446e-03  3.85184074e-03
 -7.84483366e-03  4.93734069e-02  5.33169955e-02  2.64087529e-03
  5.21455109e-02  3.63500081e-02  5.14271110e-02 -1.17530068e-02
  4.82052267e-02  3.80645581e-02  2.27654129e-02 -1.98086705e-02
  4.23805043e-02  1.33919166e-02  9.21516940e-02  7.29072765e-02
 -4.40744422e-02  2.53341217e-02  2.67350618e-02 -3.65549028e-02
  2.51303315e-02  4.79862951e-02 -2.75909789e-02  1.39151318e-02
  4.13467027e-02 -3.67983989e-02 -1.60761774e-02  2.40199082e-03
  2.40476187e-02  4.71823774e-02  8.14091822e-04 -8.91516637e-03
 -1.43189682e-02  2.98883505e-02 -1.80137355e-03 -5.30328788e-03
 -3.66025977e-02 -7.75908912e-03  4.27657180e-03  3.76207754e-02
 -1.90557521e-02 -4.48967051e-03  5.15714847e-03 -2.61362940e-02
  2.88191028e-02  7.19342977e-02 -3.62861454e-02 -3.74195613e-02
 -4.02893126e-02  2.91034556e-03 -3.07773463e-02  1.66363213e-02
  4.52319048e-02  9.05976072e-02  3.01136868e-03 -2.24152040e-02
 -1.35854436e-02  5.56922443e-02  6.86602853e-03 -3.20212506e-02
 -2.15296131e-02 -4.10817340e-02  6.60633072e-02  1.75353382e-02
  2.12778035e-03  2.76595559e-02 -3.51940095e-02  2.44373213e-02
 -2.02707071e-02 -2.10047122e-02 -4.27644663e-02 -1.96405817e-02
  1.43025713e-02  4.65546213e-02  3.00867017e-02  5.69430068e-02
 -6.08546427e-03 -2.07426809e-02 -4.34779935e-03  5.09028099e-02
  1.50447572e-02  4.21431735e-02  6.09556373e-05  4.91360687e-02
  4.26089130e-02 -1.16891302e-02 -9.98849235e-03  6.65930957e-02
  6.99799880e-02 -3.96695808e-02  1.29535934e-02  3.29200388e-03
  2.36900933e-02  1.76890995e-02  7.00305179e-02  1.37006324e-02
 -1.88951679e-02  3.71015556e-02  6.98255002e-02  5.31833060e-02
  1.73857994e-02  2.67782789e-02  8.61830339e-02  3.14737074e-02
  8.79026875e-02  9.87564772e-03 -7.52374204e-03  5.43788895e-02
  6.77856132e-02 -3.87726650e-02  7.51173943e-02  6.83860704e-02
  2.22258512e-02  6.52102381e-02  3.49219213e-03  2.19461508e-02
  6.71612173e-02  4.92011197e-02 -2.06140627e-04  7.34327435e-02
  3.32445279e-02  3.71748917e-02 -9.28316358e-03  4.94783483e-02
 -2.75891218e-02  7.03626499e-02  6.47997931e-02  3.04699615e-02
  4.03490216e-02  6.63342178e-02  7.93858245e-02  3.81248668e-02
  3.11004240e-02  4.14014459e-02  3.18690278e-02  7.62220994e-02
  5.43281473e-02  8.22509900e-02  4.54119891e-02  2.10613441e-02
  5.85942715e-02  3.84915173e-02  3.01158987e-02  6.76720664e-02
 -1.77785382e-02  5.92899323e-02 -3.74836884e-02  3.26026827e-02
  3.88553105e-02  8.72323439e-02  2.61249039e-02  7.01105297e-02
  2.94235870e-02  9.16689038e-02 -4.32007015e-02  4.39494848e-02
 -2.43787579e-02 -4.17291857e-02 -3.59108043e-03  3.05436831e-02
  9.07514989e-02 -3.04466281e-02 -2.90417927e-03  3.98324430e-02
  2.24060267e-02 -3.43934931e-02  7.12683238e-03  4.35837097e-02
  2.08718553e-02 -3.57650965e-02  1.52264889e-02  5.39624766e-02
  2.81040184e-02  6.76783472e-02  3.54964174e-02  4.59471047e-02
 -8.53882404e-04 -6.89257961e-03  8.32843855e-02] [ 0.01914582 -0.00957487  0.01884925 -0.05050214  0.0362518  -0.02412514
 -0.02789078 -0.05970051 -0.02980348  0.02902857  0.04145625 -0.05285168
 -0.03685693 -0.01417188  0.02899095 -0.03757055 -0.08637414 -0.01059653
 -0.02899569  0.02580738  0.04394867  0.00423651 -0.03943318 -0.00020842
 -0.02488613 -0.05562056 -0.05496044  0.03590098 -0.06960092 -0.05391461
  0.01532025 -0.0261566  -0.02442345 -0.00703389 -0.07233196 -0.00993874
 -0.00941114 -0.00179621 -0.0335062  -0.07928549 -0.0804074   0.00069837
 -0.00918387 -0.06668305 -0.01638737 -0.05887387  0.04160392 -0.00071234
  0.04490159 -0.04291978 -0.01793105 -0.0882229  -0.06347036  0.00159845
  0.02178463 -0.04700551 -0.0033217   0.01316435 -0.07916042  0.04514491
  0.00195021 -0.03978247  0.02357777 -0.01425594  0.02216676 -0.06938565
  0.02960569 -0.08876093 -0.00275851  0.00658986  0.01945846  0.00735858
 -0.06804812  0.00902054  0.04644097 -0.04857425  0.04312431 -0.0558694
 -0.05397033 -0.02249433 -0.00993465 -0.02109199 -0.02978217 -0.00974986
 -0.00996195  0.02439712 -0.00208215 -0.02976634  0.04651504  0.02719923
 -0.05649876 -0.0266317  -0.02089894 -0.00528663 -0.02307673  0.04188745
  0.03002813 -0.00106472  0.00529889 -0.0824306  -0.02247375 -0.04668218
 -0.0010991   0.00229304 -0.04861734 -0.07514134  0.04307437 -0.01734577
 -0.05128932  0.00622095 -0.05460113 -0.009515   -0.04870967 -0.03278967
 -0.03580239 -0.04204265 -0.00613671  0.0011412  -0.00907679 -0.05095261
 -0.07404944 -0.05927647  0.00775479 -0.03833234 -0.05764403 -0.05472367
 -0.0244776   0.03621313  0.04151016  0.03736574  0.02842518  0.01195311
 -0.01958116  0.04395108 -0.04451925 -0.02197719 -0.06257402  0.00952747
  0.01147704  0.02626128 -0.08082786  0.01102553  0.01268441 -0.06502546
 -0.02673044 -0.00432545 -0.07417457  0.01760523  0.01462815 -0.04696184
  0.02336955 -0.0234579  -0.07122321 -0.0097115  -0.05585477  0.02723291
 -0.01394162 -0.08507738 -0.08544216  0.0337043   0.00959311  0.0115492
 -0.03554093 -0.03360263 -0.05975746 -0.04440445 -0.08221426 -0.03231243
 -0.06975663 -0.06095719 -0.07068738  0.02320548 -0.00310378 -0.03161973
 -0.06136097 -0.05087198 -0.0717084  -0.00119651 -0.00227298  0.03181966
 -0.02572834 -0.07853426  0.02327518 -0.02018312  0.02968016  0.01936855
 -0.00838224 -0.0036369   0.02662528 -0.06879813 -0.05912462  0.04532538
  0.04219532 -0.0735943  -0.01969695 -0.00996326 -0.08609335  0.03908384
  0.01785232 -0.07837341 -0.03202429  0.04408151  0.01250153 -0.03026136
 -0.06808873 -0.02877622 -0.02654857 -0.07298391 -0.07269716 -0.00285362
 -0.0515342   0.02371989 -0.01386449 -0.01633652 -0.02824989 -0.06716081
 -0.01854038 -0.01060695  0.01986139  0.035618   -0.01563858  0.00176584
  0.03237327 -0.04492218 -0.07499057 -0.03544291 -0.01294395 -0.08724627
 -0.04513188 -0.06555355  0.01726993 -0.062109   -0.0623619   0.01817052
 -0.00810192  0.02411835  0.01801074  0.03039331 -0.0542037  -0.00244289
 -0.03368711 -0.0799129   0.04475317  0.0307139  -0.01953716 -0.03312322
  0.0306569   0.01993206 -0.06184812 -0.05009003  0.03489987 -0.0372599
 -0.03647926  0.02771626 -0.06718598] [-0.02289095  0.04678471 -0.03937158  0.05302458  0.0503927   0.01092353
  0.04518341  0.03599923  0.00131682 -0.01744432  0.06690784 -0.03273777
  0.07113683 -0.03999666  0.08592362  0.00435253 -0.00127146 -0.04185789
 -0.03764375  0.06102543  0.07113666  0.0624484   0.00230362 -0.04316217
 -0.04318348 -0.03490619 -0.01570952 -0.04357115 -0.03808426  0.03502643
  0.00700107  0.08343825  0.02018606  0.07011548 -0.01860694 -0.01840559
 -0.04311627  0.05411227 -0.00671658  0.06786912 -0.00931999  0.01920004
 -0.00637928  0.02004435  0.0211004  -0.00818988  0.08577906  0.03998967
 -0.03973985  0.01672377  0.00177672  0.06068014  0.00144402  0.06984965
 -0.03675153 -0.00790572  0.08634858  0.04416471 -0.01206379  0.082
  0.05506425  0.06862363 -0.03786316  0.08958072  0.02531966  0.08938345
  0.02669161  0.01341126  0.08948422 -0.03401844  0.05629406 -0.00023584
  0.00995759  0.07386976  0.08151427  0.02375672  0.04597569  0.06854846
  0.0577232   0.06979425  0.02166172  0.07547493  0.05074701 -0.03706055
  0.04989479 -0.0037067  -0.03982893  0.02768271  0.06660939  0.02101083
  0.08901568  0.02990153  0.08483827  0.04512399  0.09018788  0.01523696
 -0.00096695 -0.03747388  0.0648761   0.06206587  0.0276728  -0.04030546
  0.03848102  0.06966858  0.03093817  0.07388487  0.01095109 -0.03729076
  0.03737838  0.00439451  0.0097622   0.03299578 -0.01480421 -0.00584168
  0.04905045 -0.0069008   0.03839823 -0.01337768 -0.03853662  0.05209475
  0.01887711 -0.02013772  0.02507897 -0.03560054  0.08718665  0.02376503
  0.07329998  0.03984977  0.02361326  0.02370712 -0.03444617  0.04848294
  0.08963965  0.04964839 -0.00847941 -0.00152208  0.00355838  0.00339465
 -0.02564746  0.08837135 -0.0063443  -0.00302912  0.00138882  0.03289623
 -0.00921116  0.02406314  0.03637052  0.09229115  0.04820506 -0.03123077
 -0.02193886  0.06411228  0.03659045  0.05315208  0.07026805 -0.03870673
 -0.03451973 -0.02531702  0.08598196  0.07229026  0.06773618  0.05515569
 -0.00150371 -0.02061574  0.0260798  -0.03835893  0.02140078 -0.04219349
  0.08884913  0.05482258  0.01674279 -0.02526844  0.04405279 -0.02921412
 -0.02630352  0.01919865 -0.02829291  0.02463508  0.01535595 -0.01734729
 -0.04122995  0.07710809  0.05149545  0.08581933 -0.01894959 -0.02825286
 -0.04086757  0.07400668 -0.04340466  0.05719447 -0.02596937 -0.01421909
  0.06303453  0.02326083  0.05337332  0.04642666 -0.01500516 -0.018406
 -0.02817499  0.08142283  0.07077295  0.05018809  0.06658807  0.07741185
  0.06872085 -0.02382446 -0.03582987 -0.01446286  0.05454515  0.01130997
  0.05470982  0.01524353  0.00299954  0.02381043 -0.01651572  0.03604177
 -0.03931215  0.0375968  -0.03203614  0.07944672  0.02219846 -0.03561743
 -0.01454953 -0.03796072  0.00205461 -0.01703854  0.01131791  0.0255735
  0.00855582 -0.03543346  0.00352147 -0.02432486 -0.04145848 -0.03268126
 -0.00914614  0.04963978  0.00727012 -0.02527543  0.00996214  0.02998516
  0.0652687  -0.03494747  0.05223434  0.02193045  0.03254025 -0.01610792
  0.07973288  0.08771738 -0.00898589  0.0630386   0.06188068 -0.01243944
  0.01930541 -0.00102089  0.05554642] [-0.02306973  0.00666081 -0.02405548 -0.03465379  0.03120117 -0.05188511
 -0.05510179  0.01446413  0.01538822 -0.02989201 -0.05774396 -0.08714997
 -0.02888358  0.03499324 -0.02101822 -0.05224184 -0.05639247 -0.00891316
 -0.01777065 -0.02266818 -0.02112526  0.02124267  0.04081766 -0.08625533
 -0.05666942 -0.01222354  0.02507911 -0.07907963 -0.07749502  0.01799405
 -0.08570155 -0.02557952 -0.03639085 -0.08472978 -0.03660325  0.04062339
 -0.03106605  0.00093632 -0.05473205  0.00079079 -0.07959378  0.04560879
 -0.04418665 -0.03807897  0.01390936 -0.03898221 -0.03208643 -0.03760276
 -0.04397314 -0.05819677  0.02835783  0.04288369 -0.05373719  0.0406787
  0.00657329 -0.02303674 -0.04113667  0.01210621 -0.06144328 -0.05619494
  0.04212903  0.03807394 -0.06188827 -0.04369546 -0.03286958 -0.05862489
 -0.06697803 -0.0334553  -0.0476854  -0.05724846 -0.06457393 -0.06502134
 -0.03128392  0.01972056  0.00907677 -0.00322196 -0.00566863 -0.07266743
 -0.08189324 -0.04222925 -0.0758893   0.01736018  0.01470092  0.00789978
 -0.0804256   0.0393715  -0.0389315   0.01385182 -0.08155521  0.0008731
 -0.0567244  -0.08420379 -0.03445929 -0.08611585 -0.0577449   0.00974979
  0.04529093 -0.03775088  0.01562598 -0.0267725   0.02804058  0.00067887
 -0.01777954 -0.03183842  0.04292538 -0.06129481 -0.08259081 -0.07524875
 -0.03808855 -0.02195778  0.04329468 -0.04823798  0.0321462  -0.07727522
 -0.05792857 -0.01037495  0.04062741 -0.00495283  0.00391931 -0.01430321
 -0.05082788 -0.06826763 -0.03679845  0.03001632 -0.03238029 -0.08184031
  0.03191796  0.000513    0.03472786  0.01484582 -0.04774503  0.01690185
  0.01470132  0.03389355 -0.00614024 -0.07308538 -0.02558772  0.02469788
  0.02661009 -0.0699802  -0.02525863 -0.02930619 -0.0635435   0.03518835
 -0.0505536   0.02392632 -0.01879911  0.01044364 -0.02248537 -0.01885051
 -0.0454296   0.02888531 -0.03376986 -0.01773709 -0.01055715 -0.0078024
  0.04345503 -0.05540258 -0.04764331 -0.05653793 -0.04654541  0.02651082
  0.01085972  0.04224677 -0.05196412 -0.08288849 -0.07515211 -0.07291685
  0.03371452 -0.01287124  0.0424391   0.01551119 -0.08521841 -0.03287038
  0.00598779 -0.05808464 -0.04149283 -0.05664425 -0.05601004  0.00029751
  0.01273294 -0.0560584   0.01704032  0.02371123 -0.04541461 -0.07393179
  0.00488426 -0.00307993 -0.04104954 -0.06911772 -0.06479292 -0.01483468
 -0.02529265 -0.06278241 -0.06879555  0.0301719  -0.0545991  -0.01653178
  0.03794108  0.00717351  0.04119777 -0.05366705 -0.05075112  0.01301461
  0.01308469  0.00372724  0.01588333 -0.03889517 -0.07197696  0.04506761
 -0.07028424 -0.01801093 -0.07037912 -0.04432184 -0.04790553 -0.00593477
 -0.08626232 -0.03347742 -0.05239057 -0.00777437  0.03319681 -0.07732039
 -0.07270811  0.03402739  0.01639455 -0.04094617 -0.0886844  -0.04930715
  0.02095553 -0.08817099 -0.00350293 -0.05655362  0.03018247  0.0177111
  0.03750429 -0.07047692 -0.05363651 -0.00312646 -0.06170426  0.00490232
 -0.07608902 -0.07828404 -0.01829083 -0.06931138  0.01921001 -0.02572099
  0.03279562 -0.00895597  0.04310631 -0.00749998 -0.04270484  0.06000817
 -0.0867053   0.02430517 -0.00292937] [-0.0588049   0.06016261  0.02330753 -0.01882026  0.02933087  0.0539941
 -0.02968458 -0.01930748  0.08073233  0.05986129  0.00674285 -0.02532969
 -0.04154826  0.02824712  0.0683478  -0.01711382 -0.01642266  0.0048825
 -0.01790461  0.03482617  0.08990029  0.04772771  0.01261265  0.08605587
  0.03254829  0.02777448 -0.01295814 -0.00125268  0.03950289 -0.01562139
 -0.02573537  0.00975008  0.02509387  0.08829983  0.03546755  0.05211761
 -0.00390562  0.00828732  0.05788945 -0.00803997  0.05724582  0.00967621
 -0.0184684   0.0109601   0.03841275  0.0564617   0.01057975 -0.03590513
 -0.02593789 -0.00841942  0.05040285  0.04644815  0.04795744 -0.04138362
  0.01607567  0.05006444 -0.02918562  0.00726866 -0.03958296  0.01409939
  0.08111931  0.00528152  0.04132086 -0.02607153  0.06695507  0.05819529
  0.06310765  0.08923701  0.0347441   0.05986428 -0.00837897  0.01074553
 -0.01918106  0.08022077  0.05725916  0.06520474  0.00940492 -0.04136358
 -0.03800939  0.02749318  0.06762747  0.02622515  0.03596679 -0.01235907
  0.0468731  -0.0339462  -0.03318935  0.05032638 -0.04455657  0.06236302
 -0.03351429 -0.01580056 -0.00251399 -0.00884903 -0.03815469  0.09067773
  0.02705278  0.01869098  0.01892605 -0.0322499   0.0545087   0.01233776
  0.06479912 -0.01377148  0.00152859 -0.06238445  0.00492995  0.01412565
  0.06159514  0.06875578  0.00805876 -0.01549163  0.08636944  0.08045335
  0.05811874  0.0299709  -0.01563401  0.0330483  -0.01561665  0.02724561
 -0.03959025 -0.00907793  0.01079762  0.06998391  0.00070596  0.08356043
  0.06046041  0.07114527 -0.02754243 -0.02096033  0.07106344 -0.02525152
  0.00071875  0.03611113  0.02714624  0.05162322  0.0067222   0.07184852
  0.06368307 -0.00698199  0.07822881  0.06097824  0.08485327  0.04992621
  0.05800238 -0.02373148  0.0493916  -0.03338356  0.04843714 -0.02662678
  0.02069257  0.02957123  0.07043979 -0.01135539 -0.02307715  0.03213301
  0.05865471  0.08917171 -0.03424761  0.04897087 -0.01056557  0.08616579
 -0.02683065 -0.01824554  0.04486202 -0.01205343  0.02149444  0.01091107
  0.03817624  0.02199627 -0.04369805 -0.01737354  0.05816895  0.05666325
  0.05884252  0.00909954  0.0037657  -0.01096166  0.03262419 -0.03027966
 -0.01406671  0.05020398  0.06348483  0.01702561  0.01333096  0.08817386
  0.08007422  0.03694716 -0.03912362 -0.0338024  -0.0037674  -0.02411003
  0.01765727  0.08293123  0.07257494  0.05090536 -0.01208243  0.06365971
 -0.00817832  0.05821427 -0.02810807  0.02859125 -0.02860423 -0.01710782
 -0.02809377  0.08499281 -0.00754077  0.04011783  0.05495954  0.00582759
 -0.01895352  0.02442416 -0.00202313  0.01276974  0.00206403  0.00955443
 -0.00353029  0.0120724   0.03933347 -0.02235944 -0.02313003  0.01055415
 -0.04411601  0.01545832  0.06400101 -0.03979372  0.08593992  0.00082897
  0.03421104 -0.02115898 -0.0098491  -0.02352275 -0.04443508  0.05147383
 -0.01249977  0.08011271  0.06320243 -0.0309907   0.02757032  0.00485359
  0.04050164  0.02953543  0.03153388  0.0617651   0.08990906  0.01901909
  0.02966364  0.04359705 -0.0026277  -0.02007236 -0.03671494 -0.00325252
  0.0327494   0.04143011  0.05165413] [ 0.08591408 -0.02470639 -0.08995521  0.0423234  -0.07984953 -0.08810025
 -0.08118292 -0.0235026   0.01233889 -0.01547516 -0.04269253  0.00262985
 -0.06294455 -0.04279934 -0.00934217  0.0384214  -0.00791923  0.0193978
  0.0282107   0.01252149 -0.01412151 -0.05308977 -0.04993145 -0.06960487
 -0.05707874 -0.06050666 -0.08371115  0.03985829 -0.0299782   0.01913511
  0.02523227 -0.02571973 -0.05999381 -0.05506314  0.01187087 -0.08587609
  0.01732351 -0.04671153 -0.05023676 -0.01965099 -0.0500591  -0.05409615
 -0.00449911  0.04193231 -0.08269226 -0.0533241  -0.06731234 -0.03254136
  0.03188366  0.00606334 -0.03883079  0.0382104  -0.00845083 -0.04019636
 -0.00726636 -0.02046966  0.02341532  0.00305932 -0.02282928  0.04316136
 -0.02522599  0.00381536  0.02914725 -0.02688898 -0.02233411  0.02945354
 -0.01942831 -0.05809382 -0.05052312 -0.04213294 -0.04373669 -0.04138328
  0.03257142  0.03174077 -0.06176085 -0.07289422 -0.01873411 -0.00890893
  0.02826223  0.0230863  -0.09025522 -0.0596757  -0.02625887 -0.01797858
 -0.07161865 -0.01280878 -0.0571093  -0.01996757 -0.08353215 -0.07299471
 -0.02980013 -0.07009024 -0.03886377 -0.04233    -0.02303433 -0.05551858
 -0.00465504 -0.00487401 -0.04246976 -0.06757581  0.01557813 -0.08570864
 -0.06581784  0.02923447 -0.04808614 -0.08102528  0.02833868 -0.08693051
 -0.06447127 -0.04906832 -0.0833258  -0.04816937  0.02475767 -0.08297092
 -0.07840016  0.03311113  0.03889943 -0.05318867 -0.01448639 -0.00163307
  0.04097577  0.00388464  0.04089614 -0.00128977 -0.08992942 -0.0252655
 -0.06311814 -0.08822314  0.03473276 -0.08113179 -0.04957489  0.00245263
 -0.01748335  0.01114105 -0.04889862 -0.06345467  0.03750363 -0.00657929
  0.02259145 -0.04521108 -0.05475118  0.00918494  0.03315524  0.04084015
 -0.0101215   0.02451354 -0.07947253  0.02442267 -0.0855266  -0.08267333
  0.0069394  -0.07545667 -0.04147632 -0.06081829  0.0104372  -0.02542213
  0.02460154 -0.07083689 -0.03050523 -0.05837459 -0.03379726  0.03823504
 -0.0594802   0.00726417 -0.0489075  -0.07500377 -0.05822702  0.02406766
 -0.06735826 -0.04871579 -0.06051951 -0.03744816 -0.07420739  0.00679614
  0.023344   -0.03871663 -0.0738799   0.04386395 -0.02610608  0.03210086
 -0.03541563  0.00318917 -0.05553044 -0.06379031 -0.04752227 -0.0185126
 -0.01114168 -0.01181715  0.01632289  0.03732255 -0.02208973 -0.02832673
  0.03879447 -0.08017199  0.01457459  0.03070251 -0.08005121 -0.01474599
 -0.02159377 -0.05130535 -0.02022376 -0.08086921 -0.03449767 -0.08079039
  0.025568    0.0376441  -0.0831212   0.00315753 -0.01664861 -0.02191501
  0.03917081 -0.00648654  0.03705821 -0.0696684   0.03938125 -0.00034311
 -0.07883333 -0.08064645  0.0167195  -0.06750394 -0.07712268 -0.05987372
  0.04132216 -0.01966348 -0.08801679 -0.08245436  0.0078447   0.00025858
 -0.06689914 -0.02371988 -0.02526508 -0.06538226  0.04280975 -0.02694465
  0.03534392 -0.02574383 -0.02184294 -0.06376771 -0.00356659 -0.0405975
  0.02315347 -0.00430056 -0.07716382  0.01699728 -0.04394836  0.00412398
 -0.06786072  0.03764152  0.00037832 -0.06290021 -0.05546095  0.05683466
 -0.04861866 -0.06170072 -0.07614256] [ 0.05876164  0.00623043 -0.06196909  0.00501539 -0.01631997 -0.05077841
 -0.06207895 -0.03460428 -0.01488752 -0.0505783  -0.03759894 -0.07686324
  0.03363906  0.02126713 -0.00256006 -0.06573335  0.02481521  0.0416378
  0.0469885  -0.0462973   0.00433176 -0.05989702  0.02147759  0.00516734
 -0.00158698 -0.06474616  0.02531844  0.00725632  0.00016022  0.02169673
  0.02402708 -0.04758584  0.0032884  -0.0823769  -0.04783829  0.01913922
 -0.03509861  0.01344514 -0.06522358  0.0045423   0.00765137 -0.00681814
 -0.05556699  0.03696065 -0.03216287 -0.08745658 -0.0181671  -0.0219811
  0.05055011 -0.04917977 -0.07303572 -0.09143474  0.04325303 -0.06723783
 -0.02477938 -0.07747485 -0.06796104 -0.00467096  0.00881089 -0.07910872
 -0.03286053 -0.05116693 -0.0683099  -0.02606295 -0.0246089   0.03776752
  0.00838724  0.00852319 -0.07250696 -0.01425794 -0.08014354 -0.01022578
 -0.04717697  0.02657549  0.02761474  0.02734855 -0.06887274 -0.00074384
 -0.01831216 -0.05559087 -0.07125915 -0.06477325 -0.008488    0.05563058
 -0.05132044 -0.0400506  -0.05520358 -0.07963991 -0.08175471 -0.02562356
 -0.04576097 -0.04438436 -0.04128322 -0.07989962 -0.08542961  0.00589079
 -0.03796771  0.0633762  -0.06301304 -0.05103613 -0.06502243  0.0024177
 -0.07565969 -0.06225349  0.01688687  0.03830055 -0.05544941  0.01913987
 -0.07276178  0.01181629 -0.01596081 -0.01098875  0.03748932 -0.07679118
 -0.04599818 -0.02821585  0.02119424  0.00574615 -0.08926398  0.03189892
 -0.00520558 -0.05240792 -0.05680631  0.02089647 -0.06384191 -0.00941035
 -0.04970387 -0.07936072  0.04511874  0.01431876  0.03923594 -0.00062793
  0.00068283 -0.03968595  0.00510947  0.01787204 -0.02222915 -0.01544821
 -0.02456913 -0.02644027  0.02899811 -0.05523425 -0.05245746 -0.05972893
  0.04317715  0.02284703 -0.00342464  0.02934314 -0.03165951  0.04448945
 -0.06889524 -0.0610771  -0.05355833  0.02905504 -0.02059359 -0.02115776
 -0.07862278 -0.05895842 -0.06281619 -0.0686271   0.02948074 -0.00700835
 -0.00877424 -0.03602362 -0.04968939  0.03608898  0.02934857 -0.08820375
  0.01409991  0.03030422  0.02190721  0.02133315  0.01160696 -0.01676168
 -0.06399745  0.04393087 -0.05474976  0.02675154 -0.0464793   0.00400106
  0.02994203 -0.07029554 -0.02985424 -0.02492784 -0.03601594 -0.03427998
 -0.00696852 -0.00225109 -0.05001971 -0.08750767  0.03154369  0.05904388
  0.0311253  -0.02552146 -0.0345316  -0.06172919  0.04114269 -0.00247402
  0.0134619   0.02168998  0.01129638 -0.0416869   0.03252373 -0.08875515
 -0.06471579 -0.06733761 -0.04026597 -0.0051841  -0.03297377 -0.00465646
 -0.04109829  0.00797469  0.01094658 -0.04764879  0.01632959  0.03510462
 -0.07383822 -0.02684577 -0.03063754 -0.01492372 -0.05537143 -0.05944561
 -0.0114857  -0.02230652  0.01575871  0.01275    -0.08512377 -0.04475364
  0.00942517  0.02844477  0.003042    0.03997079  0.00080253  0.02185403
 -0.01903875  0.02082797 -0.04777676 -0.05820725 -0.05656998 -0.0234339
 -0.01752839 -0.05659118 -0.02261613 -0.00257002 -0.04097138 -0.03558003
 -0.09092873  0.0227146   0.03198526 -0.00217965 -0.01414998  0.01414464
  0.03398963 -0.0708804  -0.0076791 ] [ 5.12734875e-02 -4.03973600e-03 -8.61485153e-02 -9.61560197e-03
  2.67502852e-02 -1.41255185e-03  3.31267715e-02  2.97620911e-02
 -6.71807490e-03 -6.41644076e-02 -2.58338492e-04 -5.40387370e-02
  4.05178331e-02 -6.58348426e-02  3.84391956e-02 -5.66701777e-02
  1.72940288e-02 -7.14300275e-02  2.51270812e-02 -3.03238183e-02
 -1.32674584e-02 -2.65484229e-02  1.92694366e-02  1.24729779e-02
 -6.85032606e-02 -5.47841797e-03 -6.65472075e-02 -4.50148201e-03
 -1.31606581e-02 -2.93513071e-02 -2.35536583e-02 -6.96376935e-02
 -2.53004264e-02  9.88310762e-03 -7.26969391e-02  2.23825015e-02
  4.14618775e-02  4.48667370e-02 -2.76859850e-02  4.48582657e-02
 -1.09798955e-02  2.01493986e-02 -4.57578897e-02  3.49557288e-02
  6.49851561e-02  2.89342217e-02 -2.82603931e-02 -5.94308414e-02
  1.45367514e-02  4.48985919e-02  6.66311942e-03 -5.30046187e-02
 -2.73564849e-02 -2.86448300e-02 -3.29940990e-02 -4.97244410e-02
  1.18532246e-02 -5.58628924e-02 -6.45315973e-03 -3.53635885e-02
  4.22560722e-02  2.29305532e-02  3.94138657e-02 -7.20626488e-02
 -1.23095298e-02 -1.98237188e-02 -4.34239134e-02 -1.23371705e-02
 -1.56267490e-02 -2.83222068e-02 -4.39096056e-02 -1.06784338e-02
 -6.82725832e-02 -1.12513499e-02 -1.55940643e-02 -1.08741950e-02
 -2.91684177e-02  7.03369174e-03 -4.80903722e-02  3.52580287e-02
 -9.04151611e-03  2.97117401e-02 -6.31311387e-02 -3.34172584e-02
  2.01720688e-02 -7.01452717e-02  4.49358486e-02 -1.22240959e-02
 -1.21577252e-02  7.51594827e-03  4.20114659e-02 -2.41222121e-02
 -6.82060719e-02  3.43660004e-02  4.79564071e-03 -6.30432293e-02
  3.19540538e-02 -1.29245920e-02 -2.63231266e-02 -2.95177624e-02
  2.92691914e-03 -3.45496647e-02  7.01851631e-03 -3.75175066e-02
 -5.49264885e-02 -1.11008706e-02 -7.06148073e-02  1.03285750e-02
 -1.83956902e-02 -2.48575862e-02 -3.97777073e-02 -6.23219870e-02
  2.14198641e-02 -7.59893134e-02 -4.37283292e-02 -8.06262344e-02
  3.38077247e-02 -5.24434373e-02 -7.56882280e-02  7.10049793e-02
 -3.60500887e-02 -5.69635481e-02  1.15257325e-02 -2.94915084e-02
 -8.50992426e-02 -1.95929501e-03  1.34167233e-02 -1.65028349e-02
 -3.96974683e-02  3.53269167e-02  1.60328448e-02  1.87091753e-02
  3.89652923e-02 -5.50467744e-02 -3.54195982e-02  2.52527627e-03
  6.97341142e-03 -7.26729184e-02 -1.61007494e-02  8.28108285e-03
  4.01724800e-02  2.80037820e-02 -8.92439410e-02  3.87775106e-03
  3.00066676e-02  9.72471293e-03  8.33774079e-03 -3.22748832e-02
 -1.32053271e-02 -8.28327090e-02  2.96150707e-02 -4.31361273e-02
 -2.72447299e-02  3.91874909e-02 -3.76465395e-02  2.44428311e-02
  3.27145495e-02 -2.62121577e-02  3.04556377e-02 -2.02352572e-02
 -2.06120051e-02 -3.54432128e-02  1.80877633e-02 -2.72629261e-02
  5.27435020e-02 -7.23270923e-02  1.37525238e-02 -2.63446644e-02
 -1.25747835e-02 -5.52557781e-02 -4.73115686e-03 -3.61722289e-03
  1.19800102e-02 -3.64619978e-02 -2.01986600e-02  2.24697907e-02
 -7.57325813e-02  1.75990574e-02  1.94931980e-02 -3.99051048e-02
 -6.17394485e-02  1.35233058e-02  7.84951076e-03 -2.16786005e-02
 -7.28331506e-02  1.38295190e-02 -5.88308871e-02 -2.03880295e-02
 -3.43990438e-02 -6.63725883e-02 -2.98734405e-03 -1.32402256e-02
  2.96005141e-02  2.93994918e-02 -6.12543076e-02 -6.37160391e-02
  4.47948016e-02 -8.24655369e-02 -4.97013703e-02 -5.90162701e-04
 -7.66781196e-02 -4.73145060e-02  4.10635471e-02 -3.04821599e-02
 -2.09173411e-02 -1.47811892e-02  4.67770770e-02 -1.35579407e-02
 -4.65290099e-02  1.35438163e-02 -4.33585197e-02  2.41649859e-02
 -1.42134251e-02  1.64731964e-02 -5.59563981e-04  2.18923893e-02
  1.10554015e-02  6.27871836e-03  4.00154591e-02  4.12249379e-02
 -5.23052365e-02 -8.57307240e-02 -8.06196257e-02 -7.34701455e-02
  6.57414435e-04 -1.09588327e-02 -7.91145489e-02 -2.88626496e-02
 -1.35574564e-02  5.93663119e-02  6.19268715e-02 -5.36609180e-02
 -1.68361347e-02  7.62622585e-05 -8.87973309e-02  2.98735220e-02
  3.35004888e-02 -3.00210807e-02  3.67654599e-02  3.74797569e-03
  2.17629150e-02  9.56422556e-03 -4.54200106e-03 -7.29904771e-02
  1.22796418e-02 -1.50782224e-02 -3.22676711e-02 -2.22401582e-02
  3.24892439e-02  3.04888561e-02 -6.57877922e-02  1.78845990e-02
 -1.39782960e-02 -5.78615107e-02  1.13173872e-02] [ 0.04848097  0.00176286 -0.07502742 -0.09113447 -0.05297932 -0.06167932
 -0.08167755 -0.01854396 -0.05777051 -0.02160553 -0.06207902 -0.00680368
 -0.04688726  0.02055799 -0.06318633 -0.08610136  0.02999045 -0.08456402
 -0.05422941 -0.06736597 -0.04960205 -0.05006314 -0.04391687 -0.08742716
  0.03107947 -0.01532737 -0.00758227  0.00296904 -0.06115042  0.02911322
 -0.02900726 -0.07591642 -0.02749813 -0.05520578 -0.04553653  0.02917253
 -0.01145648  0.01544943 -0.0888521   0.01312799  0.02715837 -0.04725647
 -0.06115986  0.01666471 -0.00647333 -0.06328122 -0.00522898 -0.00886053
 -0.08616711 -0.01157641 -0.06948227  0.02369369 -0.07767246 -0.01941692
 -0.04591143  0.02121073  0.02769201  0.02828512  0.03977508 -0.00918809
  0.00788605 -0.07538651  0.00110694 -0.0821867  -0.06580769 -0.05806958
  0.01286826 -0.00308123 -0.03041817 -0.00635587 -0.05530814 -0.07047644
 -0.00568872 -0.05571451  0.00833351 -0.02789227 -0.03964585 -0.02387807
 -0.05403078 -0.03570066 -0.00282551 -0.04918765  0.00506612 -0.05268799
  0.02986771 -0.02951178 -0.02935265  0.00613289 -0.02822568 -0.02554702
 -0.08897507 -0.08524406 -0.07648894 -0.0347444   0.03795354 -0.08616041
  0.00185312 -0.0585659  -0.0163327  -0.08349807 -0.00308454  0.02561641
  0.03636049 -0.06370829 -0.02516042  0.01901408 -0.05804282 -0.06089979
 -0.08794542 -0.02865515  0.00428521 -0.0232187   0.03867123 -0.01034265
 -0.00552408  0.00318492  0.01535931 -0.04778825 -0.00069055  0.01309205
  0.03420365 -0.04665524  0.0327416  -0.03567789 -0.02381119 -0.08260143
  0.0096565  -0.01013071  0.02552319 -0.02302167 -0.01949684 -0.00948461
 -0.02043392 -0.03095193 -0.05743693 -0.02840877  0.04011984  0.03639772
 -0.00026859  0.01318216 -0.04983172 -0.01128848 -0.03748899 -0.02465042
 -0.04380956 -0.0831014   0.00595138  0.0373023  -0.08869315 -0.02194516
 -0.01440286 -0.05212499 -0.04485223 -0.01180319 -0.00558254 -0.08086467
  0.00464063 -0.01795618 -0.07774065 -0.04999627  0.02809097 -0.02695715
 -0.06607024  0.03167119 -0.07390815 -0.0247833   0.01144721 -0.02657891
 -0.09074784 -0.08903364  0.03712997 -0.04968776 -0.01555773 -0.01509761
  0.0365296  -0.08294103 -0.08757272  0.04165014 -0.02863745  0.02295559
 -0.06466531 -0.08455422  0.00914107 -0.00073454  0.02986561 -0.08454292
 -0.05880532 -0.06304079 -0.0797905   0.02225163 -0.05486911 -0.05570215
 -0.01466332 -0.01273388 -0.02055634 -0.07837127 -0.03586737 -0.03769811
 -0.05864268 -0.01808341 -0.04862226 -0.03165303 -0.00373188 -0.00633344
  0.03911975 -0.06329745 -0.06682255 -0.03022451 -0.07453081  0.03689051
 -0.06777599 -0.0466863  -0.07915469 -0.05421218  0.00487331 -0.07110067
  0.00882082 -0.0295046  -0.02237831 -0.04800383 -0.01762773 -0.00142361
 -0.07226022 -0.0183331  -0.08424023 -0.03152655  0.02434126 -0.08315579
 -0.06927136  0.0409349   0.00751647 -0.00937953  0.04175509 -0.07211829
  0.01852846 -0.08046765 -0.03924882 -0.03446968 -0.00449117 -0.03279645
 -0.01432997 -0.02661072 -0.04139041 -0.01700007 -0.05451775 -0.06039845
 -0.00089668 -0.0477865  -0.06351811 -0.0416677  -0.08364757  0.00514574
 -0.01116861 -0.00030929 -0.06768984] [-3.54276784e-02  3.70617658e-02 -2.35695876e-02  5.92320412e-02
 -1.31056790e-04  7.96686932e-02  1.40070412e-02  6.63773250e-03
 -2.39369888e-02  8.56295452e-02  1.84779204e-02 -3.86053473e-02
  2.28446759e-02  8.06184858e-02  7.11890385e-02 -3.41942385e-02
  4.16143090e-02  4.94490378e-02 -3.06805689e-02  7.97477663e-02
  4.17648517e-02  3.50178108e-02  3.30116153e-02 -1.88515596e-02
  4.08802666e-02 -4.10236083e-02  1.34289591e-03  3.88937183e-02
  1.91438664e-02  3.07482686e-02  3.13113071e-02 -1.54360048e-02
 -4.28056382e-02  2.02694964e-02  8.07496682e-02 -1.62144061e-02
 -5.62758595e-02 -2.23795399e-02  5.60574122e-02 -3.60423066e-02
 -2.14008857e-02  3.33056264e-02  2.40804739e-02  6.10202998e-02
  6.84637874e-02  8.27536806e-02 -3.52905355e-02  5.93344048e-02
 -7.26702437e-03  1.20555116e-02 -4.22172770e-02  5.02029844e-02
  8.52774903e-02  3.01876497e-02  6.07339069e-02 -1.00014620e-02
 -2.06830609e-03 -3.09515046e-04  4.42215018e-02  2.01470219e-02
  7.07779452e-02  3.83956172e-02  8.79448503e-02  4.31041531e-02
  8.94229189e-02 -1.75782610e-02 -9.12130065e-03  3.12610976e-02
 -6.46161754e-03  3.87821198e-02 -3.36533338e-02 -2.39780955e-02
  7.22604319e-02  4.38573072e-03 -1.33806476e-02  7.23124892e-02
 -1.19844661e-03  8.95132273e-02  6.20029308e-02 -3.26645076e-02
  4.02090400e-02 -1.94101091e-02 -1.21408030e-02  3.30689698e-02
  5.64209372e-03  1.76787078e-02 -4.70126122e-02 -1.97378956e-02
  4.74865064e-02  1.15481578e-02  2.37425249e-02  5.39369136e-02
 -4.41505834e-02  6.63413033e-02  4.65985090e-02  7.63020217e-02
 -1.88830867e-03  2.38073394e-02 -3.58739719e-02  7.72921816e-02
  1.42597901e-02  8.25944450e-03  2.50368025e-02  6.14192188e-02
 -3.76717485e-02  7.51589891e-03  6.33470435e-03 -1.87608711e-02
  7.04924911e-02 -3.26861180e-02  6.90162629e-02  3.84741550e-04
  6.67528436e-02  1.88036542e-02 -1.72512401e-02 -3.34732980e-03
  2.00729053e-02  2.67876927e-02  2.21628491e-02  9.98585019e-03
  1.68993510e-02 -1.32568032e-02 -1.63850039e-02 -1.51105423e-03
  7.44974539e-02  4.19401149e-05 -1.02176378e-02  4.42568697e-02
  3.44441943e-02 -2.46092165e-03  7.63988495e-02 -4.15199697e-02
 -1.72581095e-02  8.70278999e-02 -1.33898901e-02  7.59679154e-02
 -2.71341261e-02  1.24855014e-02  3.36577967e-02 -4.09085453e-02
 -6.38824608e-03 -3.47107276e-02 -3.66961882e-02  1.88324172e-02
  4.54899557e-02  8.62913858e-03 -5.95282391e-03  9.11903083e-02
  5.89009821e-02  8.21838006e-02 -5.06854989e-02  1.51050277e-02
 -1.28889056e-02  6.35752156e-02  2.14435272e-02  4.32531945e-02
 -6.17608391e-02 -2.27973316e-04  6.99556172e-02  2.95207519e-02
  7.36088529e-02  1.04450705e-02  5.04318699e-02 -1.54994754e-02
  2.37601716e-02  3.36137302e-02  6.46936670e-02  1.83140568e-03
  5.58786280e-02  7.49099404e-02 -2.95082889e-02 -8.40629861e-02
  8.47656727e-02  6.58287853e-02  3.93504053e-02 -1.03579601e-02
  2.99636368e-02  4.45016772e-02  6.35293573e-02 -1.52892224e-03
  5.74574731e-02  5.12889884e-02  2.25060172e-02  7.11246431e-02
 -3.22564393e-02 -2.66480744e-02 -3.55095044e-02  4.12555858e-02
 -3.62441167e-02  1.10863363e-02  7.69864693e-02 -1.29186679e-02
  7.00104162e-02 -3.24013494e-02  2.98262164e-02 -1.92867573e-02
  5.30335344e-02  5.31645380e-02 -3.05681657e-02  6.13582283e-02
  1.66552812e-02  6.55696467e-02 -7.38274946e-04 -7.42376607e-04
 -1.60579216e-02  4.47421195e-03 -2.43661813e-02 -3.17775197e-02
  7.65422657e-02 -8.03670497e-04  5.78558706e-02  3.68908979e-02
  8.99365731e-03  6.72602877e-02 -1.66611571e-03 -1.50711117e-02
  1.91684358e-03  5.13192229e-02 -1.01488119e-03  6.97692111e-02
  2.06498187e-02 -4.04120944e-02 -7.73401931e-02  6.53440505e-02
 -2.08027083e-02  3.60878706e-02 -6.17216749e-04 -1.27310650e-02
  8.72253254e-02 -3.51250283e-02 -4.96894270e-02  7.32897446e-02
  1.05684660e-02 -6.72277957e-02  1.34424772e-02 -1.04723303e-02
  7.46254763e-03 -1.35512883e-02  5.21053327e-03 -1.00797815e-02
  3.93874906e-02 -1.66994799e-02 -1.17974374e-02  3.42748612e-02
  8.79321545e-02 -5.09692952e-02 -7.33063836e-03  2.25778483e-02
 -2.87019182e-02  7.78665692e-02 -2.81414930e-02  5.04433503e-03
  3.58076617e-02 -2.15658583e-02  8.84227008e-02] [-0.00950197 -0.03651827  0.0219818  -0.04249421 -0.04038556  0.0382539
  0.03548087  0.01329146 -0.02597226 -0.05904198 -0.03161978 -0.03302516
 -0.07495845 -0.03551692  0.0310064   0.03894551 -0.07918215  0.02236909
 -0.08304694 -0.01677373 -0.03527692  0.04100985 -0.05390792 -0.01182169
  0.01849797 -0.00359539 -0.02584492 -0.04490404 -0.04590071 -0.008175
 -0.0849402  -0.05960643 -0.0125324  -0.02276406 -0.04279627 -0.06210833
  0.00252988 -0.08885325 -0.02157948  0.04186455 -0.03732153 -0.01843315
 -0.0313344  -0.06616344 -0.01795911 -0.04449807 -0.01344615  0.006366
 -0.01626117 -0.05014423 -0.07714806 -0.0428395  -0.02969645  0.00668033
 -0.00558029 -0.02381352 -0.09083211 -0.01855647  0.00820273 -0.03683161
 -0.03500137  0.00510116  0.02106328 -0.01288176  0.02027797 -0.01963547
  0.03643465 -0.07584035  0.00295939 -0.04652133 -0.07288934 -0.08233562
  0.01921258 -0.04827277 -0.08328624 -0.00040149  0.00715117 -0.06135271
 -0.0888746   0.020864    0.01393408  0.03170621 -0.04354087 -0.08606836
 -0.01549646 -0.07630845 -0.01682408 -0.03881174 -0.01171562 -0.08616734
  0.01354105 -0.00239983  0.0241014  -0.02589175 -0.05116133  0.04343835
 -0.02265707 -0.01098541 -0.08909484  0.03761392 -0.01535037  0.03905291
 -0.0844214  -0.04594959 -0.01501796  0.03144842 -0.06966077 -0.07967843
  0.03775914 -0.04060587 -0.04012396 -0.08263315 -0.04281651 -0.04026103
 -0.07416455 -0.08419698  0.00111807  0.03279214 -0.05749251  0.01722153
 -0.01329308 -0.08141211 -0.08823629 -0.00288943  0.04194001 -0.04148256
  0.03083679 -0.08543051 -0.02553052  0.02803699  0.01467947  0.04109008
 -0.07702434 -0.02073985 -0.06519374 -0.07014854  0.01063093 -0.04347417
 -0.0419716  -0.02986008 -0.0458072  -0.03553097 -0.02520145  0.02762421
 -0.00484614 -0.0878675  -0.04734734 -0.06643067  0.04012779 -0.05652718
  0.0266102  -0.09177763 -0.06698239  0.01507604 -0.06636645  0.00691653
  0.01280861  0.04034662 -0.01722938 -0.06054283 -0.05535435 -0.07130796
 -0.03039205 -0.041356   -0.04667839 -0.03932596 -0.05384929 -0.05531693
  0.04353463 -0.04917154 -0.09111136 -0.06861196 -0.01541174 -0.0317087
 -0.01768476 -0.0622925   0.02060581 -0.00165244 -0.06710376 -0.04064847
 -0.05628834 -0.04703411  0.00683237 -0.0307066  -0.03973168 -0.03990451
  0.01996899 -0.07513963 -0.00782708 -0.07076066 -0.005308    0.02659581
 -0.01420818 -0.01227696 -0.02362542  0.01533964 -0.00153143 -0.0459436
 -0.08962534 -0.01014055 -0.04258532 -0.06243749 -0.053542    0.00772928
 -0.08613881 -0.00557586 -0.00278811  0.04182012  0.04176035 -0.08311345
 -0.07738301 -0.04340743  0.03571957  0.02706531 -0.03649808  0.02457119
  0.03430966  0.00268545  0.03121465  0.02380456  0.03924488 -0.02042631
  0.02789753  0.02348451  0.00708062 -0.01289989 -0.00097264 -0.05358348
  0.01314575 -0.04188011 -0.0431782  -0.01867536  0.02373587  0.01603426
 -0.00085034  0.01038429  0.01296852  0.01787733 -0.06960856 -0.03773161
  0.00176175 -0.04617738 -0.01748363 -0.02957789  0.02455879  0.01357021
 -0.00466994  0.03911599  0.01461899  0.02701605 -0.04808193  0.07398374
  0.04025399  0.00551239  0.00772135] [-0.06318273  0.06865312  0.0273533   0.02742736  0.04272199  0.00817304
  0.01437774  0.06472276  0.09104171 -0.01694024 -0.03262967 -0.01509398
 -0.03679655 -0.02825548  0.06422456  0.03382888  0.03991134  0.00805747
  0.00703865  0.0774869   0.02365522  0.0392138   0.04995691  0.08612775
 -0.03453849  0.06457905  0.01832451  0.05440056 -0.00212417  0.0571754
  0.08095624 -0.02410464 -0.01049255  0.08559491 -0.02955131  0.03428644
  0.07576398 -0.00476251 -0.00686469  0.00972724 -0.03763889  0.01978632
  0.04850325 -0.03248365  0.02093311  0.07321739  0.01337702 -0.03047315
 -0.00215871  0.06128459  0.01275174  0.07123218  0.02473881  0.03960709
 -0.04375023  0.06110182 -0.02326089  0.08789848 -0.00693137  0.05110353
 -0.01509513  0.02315601  0.01281456 -0.00789189  0.00366517 -0.03527919
  0.04945075  0.00324984  0.05351748  0.08989915  0.03197407 -0.02242761
  0.05422593  0.08014242  0.01325813  0.07541937 -0.01708185  0.07447499
 -0.0388121  -0.01492385  0.07698341  0.02922439 -0.02739099  0.01842979
  0.03258966  0.03921003 -0.00408149  0.03156967  0.07517385  0.05218309
  0.01114132  0.02469086  0.05045104 -0.00785529  0.04837016  0.01787592
  0.04574287  0.0645526   0.00077561  0.04401698 -0.0385835   0.04890025
  0.08562877 -0.03119194  0.07935797  0.0665815  -0.03934285 -0.02258786
  0.0728591  -0.00037407  0.05915454  0.00648485 -0.00064408  0.03910471
 -0.03557943  0.04395752  0.01309208  0.02375607 -0.0361369  -0.01256177
  0.01341978  0.02391771  0.05261921 -0.03269562  0.0040497   0.07772096
  0.08361336 -0.02189061 -0.01986255  0.00556884  0.08810373  0.03478257
  0.04536344 -0.03561777 -0.02920017  0.01389932  0.04966392  0.03949206
  0.00819045  0.0294284  -0.03167644  0.07842383  0.01784549  0.04095853
 -0.0093104   0.03864847  0.07247905  0.05230533 -0.00292079 -0.03139154
 -0.01029835  0.0584225  -0.02808129  0.05256931 -0.03945186  0.01869981
  0.0466986  -0.01632321 -0.02293818  0.01623003  0.07740778  0.02561921
  0.02295913 -0.00645949  0.08420177 -0.009232   -0.03161079  0.0175413
  0.05693761 -0.00185767  0.02542727  0.02848841  0.06350788  0.05600091
  0.00149656  0.06586413  0.08831431 -0.03278123  0.0173233  -0.03338338
 -0.03797694  0.08587051 -0.03885362 -0.00137293 -0.03917511  0.08833438
  0.00044576 -0.01528278  0.01382092  0.09086979  0.02927944  0.07133853
  0.06516775  0.01384193  0.02588781  0.07279461  0.01141495  0.08530102
  0.01606802  0.03965889  0.02797585  0.02667026  0.04067967  0.0448151
  0.00083609 -0.04077277  0.05622561 -0.02636592 -0.03616706 -0.01703734
 -0.02542063  0.03691657  0.04368833  0.06401172  0.06810617  0.03550733
 -0.0018915   0.04691691  0.03895234 -0.00502448  0.00027534  0.0900253
 -0.03390685 -0.00717136  0.08196308  0.03409851  0.08130739  0.07845326
 -0.04016631  0.06305204 -0.02668214  0.02988348  0.05493023  0.05158474
 -0.03562513 -0.03438803 -0.00953417 -0.007756    0.07355151  0.08105551
  0.07554254 -0.04226233  0.00918211 -0.03982099  0.08650649  0.0079612
 -0.01034949  0.04932683  0.01554164  0.06258899 -0.01761813 -0.02668127
  0.05372152  0.00286297  0.07804954] [ 0.07926781  0.02085777 -0.07097525  0.00767043 -0.02673157 -0.03916549
 -0.05883722 -0.0103158   0.01274328 -0.02141408 -0.03022774 -0.08734575
 -0.02905937 -0.0700544  -0.00245652  0.03411133 -0.0705338  -0.03344567
 -0.0345005  -0.02711447 -0.00869466 -0.05035965 -0.01826979 -0.07092154
 -0.04155793 -0.01882553 -0.06292066  0.02523832 -0.03122698 -0.0084511
  0.03769301  0.03594159 -0.05872091  0.0054634  -0.03337788 -0.03470851
  0.01563719 -0.00210623  0.02580055 -0.06135011 -0.00465657 -0.04112686
 -0.06820852  0.01188571 -0.07080542 -0.02789414 -0.08938966 -0.03390455
 -0.05059175  0.04206894 -0.0569365  -0.03910329 -0.01082873  0.02885637
  0.00943264  0.02390941 -0.04818986 -0.04973893 -0.00549632 -0.00253033
  0.00138724 -0.04840978  0.03399219 -0.06347081 -0.02976193  0.02002746
 -0.01351197 -0.04262555 -0.07088172 -0.02564548 -0.08059345 -0.01201735
 -0.03321305 -0.0181833  -0.00644476 -0.067908   -0.08525608 -0.05596916
 -0.01754824 -0.07816053  0.04222601 -0.04835057  0.03028267  0.03303718
 -0.02835738 -0.09306544 -0.05780633 -0.02856755 -0.0174475  -0.00695679
  0.03686928  0.04367418 -0.05488427  0.01186324 -0.08912554 -0.01803255
 -0.07389382 -0.01600905 -0.06875145  0.00107851 -0.06791518 -0.05147037
  0.0074343  -0.0386061  -0.01498177 -0.07805326 -0.07411611 -0.01564131
 -0.03267437 -0.08959404  0.03406164 -0.0236427  -0.05667512  0.0062648
  0.00575413 -0.01636225 -0.01712099 -0.03605482 -0.0519105  -0.08497678
 -0.02223442  0.01079604 -0.03528632 -0.02935251 -0.0668018  -0.09113067
 -0.01783801 -0.02453304 -0.03012459  0.04277522  0.03015507 -0.04085842
 -0.05072079  0.03707187 -0.01899458 -0.05719932 -0.02267985  0.02140323
 -0.03635879  0.03060634 -0.03781491 -0.08389759 -0.08483934  0.00583695
  0.00552158  0.04139243 -0.03229578 -0.02699398 -0.01558867 -0.0343437
 -0.07734799  0.02478945 -0.08052132 -0.04763663 -0.00779986  0.03395534
 -0.05910742 -0.04778633 -0.06097261  0.00618575  0.03334406  0.01879786
 -0.04654221 -0.08259575 -0.06476581 -0.02023963 -0.08293577 -0.00938318
  0.02814876 -0.01038658 -0.0535905  -0.02808742 -0.04678497  0.03846996
 -0.00490092 -0.08121125 -0.07862362 -0.04069242 -0.02356968 -0.09055391
  0.02071477 -0.01013957  0.00889045  0.03449724 -0.07037189 -0.05227755
 -0.07441905 -0.03389077 -0.02544774 -0.06655555 -0.04321907 -0.03987445
 -0.02337665 -0.02832615 -0.04666315  0.03589727  0.0433859  -0.00824656
  0.01027673 -0.06184192  0.02517747 -0.0219446  -0.0840468  -0.07285748
  0.03291469 -0.04458374  0.01635079  0.00011512 -0.01465092 -0.06722371
 -0.04425871 -0.056315   -0.07524925 -0.00757634  0.02470419 -0.04176728
 -0.01451586  0.02957818 -0.03042163  0.00803401  0.00932473  0.01838671
  0.00460092  0.03696772 -0.02510733  0.03239794 -0.07678238 -0.02442212
 -0.08186511  0.04250342 -0.04396579 -0.07699787 -0.01952045 -0.06087803
 -0.0833425   0.00302783 -0.04398613 -0.0158712  -0.01715561 -0.07741421
 -0.03256632 -0.01892489 -0.06756211  0.0151905   0.04318797 -0.00318502
